tree
version=v4
num_class=1
num_tree_per_iteration=1
label_index=0
max_feature_idx=127
objective=binary sigmoid:1
feature_names=funding_total_usd funding_rounds seed venture equity_crowdfunding undisclosed convertible_note angel grant private_equity post_ipo_equity post_ipo_debt secondary_market product_crowdfunding round_A round_B round_C round_D round_E round_F company_age funding_category_SingleRoundNontraditional funding_category_SingleRoundTraditional country_Argentina country_Armenia country_Australia country_Austria country_Azerbaijan country_Bahamas country_Bahrain country_Bangladesh country_Belarus country_Belgium country_Bermuda country_Botswana country_Brazil country_Bulgaria country_Cambodia country_Cameroon country_Canada country_CaymanIslands country_Chile country_China country_Colombia country_CostaRica country_Croatia country_Cyprus country_Czechia country_Denmark country_DominicanRepublic country_Ecuador country_Egypt country_ElSalvador country_Estonia country_Finland country_France country_Germany country_Ghana country_Gibraltar country_Greece country_Guatemala country_HongKong country_Hungary country_Iceland country_India country_Indonesia country_Ireland country_Israel country_Italy country_Jamaica country_Japan country_Jordan country_Kenya country_KoreaRepublicof country_Latvia country_Lebanon country_Lithuania country_Luxembourg country_Malaysia country_Malta country_Mauritius country_Mexico country_MoldovaRepublicof country_Morocco country_Myanmar country_Nepal country_Netherlands country_NewZealand country_Nigeria country_NorthMacedonia country_Norway country_Oman country_Pakistan country_Panama country_Peru country_Philippines country_Poland country_Portugal country_Romania country_RussianFederation country_SaudiArabia country_Serbia country_Seychelles country_Singapore country_Slovakia country_Slovenia country_Somalia country_SouthAfrica country_Spain country_Sweden country_Switzerland country_TaiwanProvinceofChina country_TanzaniaUnitedRepublicof country_Thailand country_TrinidadandTobago country_Tunisia country_Turkey country_Uganda country_Ukraine country_UnitedArabEmirates country_UnitedKingdom country_UnitedStates country_Uruguay country_Uzbekistan country_VietNam market_freq city_freq region_freq
feature_infos=[-0.67532295044921531:4.0857875417691307] [-0.57665254721655179:14.941164838170888] [-0.3789176115457964:14.217305045052846] [-0.57116487537755867:4.3420247125942781] [-0.031855359937894109:110.90986706578006] [-0.052142871080105804:51.12250670740255] [-0.059022084079612416:84.098206798046292] [-0.21190758994514294:43.660666835184472] [-0.05601472815372726:49.417697559509044] [-0.069471315546555751:36.563710958617278] [-0.029821113619211807:66.488423221764876] none none [-0.024718246760075033:97.831202956551891] [-0.36126005218513069:9.3538632441493288] [-0.26230526020478456:9.6078913007947033] [-0.1387706618230376:14.20226609507092] [-0.062501638816651925:39.096049277991078] [-0.034604237050546556:49.609659733250311] none [-1.1079053408077013:18.202914830972478] [0:1] [0:1] [0:1] none [0:1] [0:1] none none none none none [0:1] none none [0:1] none none none [0:1] none [0:1] [0:1] none none none none none [0:1] none none none none [0:1] [0:1] [0:1] [0:1] none none none none [0:1] none [0:1] [0:1] [0:1] [0:1] [0:1] [0:1] none [0:1] none none [0:1] none none none none [0:1] none none [0:1] none none none none [0:1] [0:1] none none [0:1] none none none none [0:1] [0:1] none none [0:1] none none none [0:1] none none none [0:1] [0:1] [0:1] [0:1] none none [0:1] none none [0:1] [0:1] none [0:1] [0:1] [0:1] none none none [4.1937513105472846e-05:0.11566366114489411] [4.1937513105472846e-05:0.068903334032291888] [4.1937513105472846e-05:0.16083036275948837]
tree_sizes=2153 3065 3020 3020 3006 3027 3040 2986 2645 2969 3016 2983 3033 3059 3051 3007 2745 2972 3045 3037 3027 3055 3024 3012 3053 1925 2378 2958 2440 2333 3053 2655 3020 3026 2856 2955 2360 2401 3012 2173 2987 3013 2944 1663 2697 3021 2372 2903 3033 2469 2017 2649 2282 2137 2066 2456 3047 2230 3012 2138 1928 2459 2999 2041 2256 3008 1885 2510 2149 2501 2069 2158 2249 2244 2472 2843 2084 2682 2753 2061 2217 2943 2539 2264 2317 1757 2922 1857 3006 2066 1525 3017 2371 2203 2385 2299 1796 2810 2200 2096 2849 2972 2391 1917 1646 1635 2883 1316 2704 2669 2528 2471 1675 2544 2308 1554 2034 2554 1845 1909 2241 2688 2366 2320 2156 2090 2262 1985 2420 1445 3037 1192 1297 2258 1583 2581 2191 2795 1892 2417 2966 2163 2335 1644 2328 2145 2200 1966 2269 1521 1967 1982 2668 1588 2772 2050 2495 2507 2850 2799 2715 1835 1805 1917 1792 1439 2169 2450 2804 2381 1984 2446 3035 1848 1452 1816 2230 2844 1697 2966 2013 2960 2863 1928 2681 2188 2911 1911 2054 1551 2104 1924 2808 2726 2180 2391 1530 1269 2210 2170 1791 1652 2000 3045 1330 1615 1694 1666 2588 2449 1779 1453 2187 2337 1436 2359 2274 1592 1646 1516 1190 2069 1789 1782 1603 1962 2071 2959 1871 1723 1595 2923 1631 2180 2478 1600 2302 1570 2488 2214 1423 2600 1894 1929 1441 2952 1794 1631 1737 2367 1966 1534 2364 2324 2431 1515 1863 2002 1780 2326 2074 1911 2453 2893 2099 1535 1622 1685 1693 1723 1883 2949 1694 1296 2659 1398 2170 1735 2092 1958 2896 1941 2496 2396 1538 2437 1597 2569 2336 1905 1594 1667 2316 1651 2527 1710 2221 2859 1068 2088 2777 2979 2123 2078 1343 1912 1759 2908 2159 2850 2505 1852 2203 1271 1447 2260 2334 2075 1699 1673 2045 1576 2031 2915 2187 2448 1940 1243 2424 2218 3000 1288 1945 1588 2178 1528 1465 2419 2240 2953 2047 2195 2996 2839 2866 2208 2620 2865 1902 2211 1877 2005 2473 2072 1923 1554 2207 2373 2958 1540 2892 2007 2036 2883 1863 2907 2499 2151 2770 2309 2216 2343 1978 2108 1880 2990 1794 1976 2034 1824 2390 2202 2781 2639 2631 1865 2380 1849 1956 2271 1804 2765 2178 2171 2327 1509 2197 1258 2457 2226 1826 2136 2171 1082 2472 2733 2484 1691 2092 2668 2817 1262 1661 2770 2029 1784 2660 2712 1791 2630 1785 1989 1486 1945 1829 2463 1604 2955 1586 2012 2929 2134 2420 2598 2303 1016 1770 2216 1400 2407 1858 2271 2073 2448 1802 2065 2795 2009 1741 1778 2897 2440 2959 2394 2490 2315 2418 1240 2465 1735 1574 2567 2790 2110 2047 2833 2543 2239 2838 2209 1899 2459

Tree=0
num_leaves=19
num_cat=0
split_feature=1 1 125 125 21 125 125 0 125 7 127 127 125 15 15 7 7 127
split_gain=2298.51 2210.27 718.029 734.61 610.558 410.682 754.841 263.441 192.426 168.937 153.328 843.339 139.235 121.535 13.2737 9.61608 7.59231 6.58624
threshold=0.45695658729104821 -0.57664773877483355 0.11565687819780808 0.0085210762196278895 1.0000000180025095e-35 0.071231224772482074 0.071205814029582634 -0.56800608272726305 0.0020976869941272975 1.2964411822725339 0.16082239058305062 0.068447151252661279 0.00054603594796062953 -0.26180120095722997 0.7658400092702341 -0.21053051963217032 -0.011010997720060908 0.082852936760262438
decision_type=2 2 2 2 2 2 2 2 2 2 2 2 2 2 2 2 2 2
left_child=1 2 3 7 8 6 -5 12 15 -9 11 13 -1 -10 17 -2 -17 -4
right_child=4 -3 14 5 -6 -7 -8 9 10 -11 -12 -13 -14 -15 -16 16 -18 -19
leaf_value=0.085767101094117906 0.15930314652417171 -0.18827426160586666 0.14314073833082755 -0.055624217211678963 -0.17341309062882679 -0.18330028724625863 0.15681139459910404 0.093255394334135544 0.099878029656024353 -0.055526038127861992 0.14505685647208347 -0.17869403584467256 -0.01869973888963947 0.028234246508045364 0.013065915731697797 -0.0013193988233941574 0.10674211444717101 0.067482772274467223
leaf_weight=127.99994659423828 330.99986189603806 723.24969823658466 240.74989955127239 2159.7490988820791 75.499968498945236 192.99991947412491 154.2499356418848 573.49976071715355 997.74958370625973 70.999970376491547 240.74989955127239 112.99995285272598 755.99968457221985 289.99987900257111 14.999993741512297 9.9999958276748639 84.499964743852615 43.249981954693794
leaf_count=512 1324 2893 963 8639 302 772 617 2294 3991 284 963 452 3024 1160 60 40 338 173
internal_value=-0.0013194 -0.0360589 -0.0103834 -0.0209751 0.0805623 -0.0524448 -0.040989 0.0304629 0.0904226 0.0761146 0.0749174 0.0621195 -0.00280336 0.0841564 0.129348 0.147793 0.0978618 0.13415
internal_weight=0 5057.75 4334.5 4035.5 2142.5 2507 2314 1528.5 2067 644.5 1641.5 1400.75 884 1287.75 299 425.5 94.5 284
internal_count=28801 20231 17338 16142 8570 10028 9256 6114 8268 2578 6566 5603 3536 5151 1196 1702 378 1136
is_linear=0
shrinkage=1


Tree=1
num_leaves=27
num_cat=0
split_feature=20 21 7 121 20 121 121 126 20 0 0 126 126 126 126 0 120 120 126 120 21 67 7 0 21 42
split_gain=2300.08 1229.49 1054.3 783.768 383.032 218.45 217.984 212.832 204.643 301.831 192.466 176.147 572.105 169.899 124.304 92.3289 81.9103 71.8823 65.1043 59.6526 51.0368 49.6836 43.2911 42.5624 41.5586 29.0897
threshold=-0.67297695856039985 1.0000000180025095e-35 -0.21091983793481345 1.0000000180025095e-35 1.2407079233277261 1.0000000180025095e-35 1.0000000180025095e-35 0.00033576309542663474 -0.84694831145932048 -0.64775523988147066 -0.61395407707693728 0.061823134614036872 0.015099535816924718 0.061823134614036872 0.061823134614036872 0.36803463728556995 1.0000000180025095e-35 1.0000000180025095e-35 0.00016790385498508296 1.0000000180025095e-35 1.0000000180025095e-35 1.0000000180025095e-35 0.16234171028156361 -0.52764235473700427 1.0000000180025095e-35 1.0000000180025095e-35
decision_type=2 2 2 2 2 2 2 2 2 2 2 2 2 2 2 2 2 2 2 2 2 2 2 2 2 2
left_child=8 2 5 10 7 -2 22 16 -1 18 17 12 -7 -9 15 -8 -5 -3 -10 -6 -11 23 -4 -12 -20 -24
right_child=1 3 6 4 19 11 14 13 9 20 21 -13 -14 -15 -16 -17 -18 -19 24 -21 -22 -23 25 -25 -26 -27
leaf_value=0.16062907817092789 0.1351008797385376 -0.0023216322978852279 -0.043320701706511665 0.00056104898192347685 0.039577370080681309 0.055514003386932409 -0.1239524953170716 -0.11382479290887804 0.12381238746912752 0.1556935784835238 0.014583535004046291 0.13683347070715932 -0.17414842847264556 -0.019089687320985173 0.030941128363261686 0.029107991099604179 -0.14808598583684771 -0.11069737141005737 0.043777986755567259 -0.12240995115267449 0.085627230002363247 -0.015451611062028438 0.063073791520717584 0.092115835895055204 -0.0451277713225295 -0.064530497285604005
leaf_weight=531.09268102049828 332.36080440878868 177.95207023620605 62.611448884010315 255.30112402141094 234.50577686727047 1126.8787665218115 461.0037230104208 1994.527327299118 25.709662839770317 253.41892670094967 93.266226217150688 175.74601417779922 99.813047781586647 194.97406193614006 54.346331968903542 32.889555171132088 31.656084582209587 76.831657528877258 56.5895626693964 15.932389706373213 232.47611801326275 54.804854422807693 120.2713784724474 305.96042287349701 166.77943727374077 11.475496262311934
leaf_count=2129 1333 713 251 1024 941 4522 1849 8005 103 1017 374 706 401 782 218 132 127 308 227 64 932 220 482 1227 668 46
internal_value=0 -0.0247332 0.0258872 -0.0612948 -0.084287 0.0662311 -0.0677845 -0.0955517 0.115298 0.0811817 0.0267477 0.0492315 0.0358802 -0.105584 -0.0980715 -0.113001 -0.0175105 -0.0377665 -0.00243067 0.0256941 0.124118 0.063557 0.0166638 0.0751352 -0.0208907 0.0477552
internal_weight=0 5913.11 2477.4 3435.71 2726.9 1734.8 742.598 2476.46 1266.07 734.974 708.815 1402.44 1226.69 2189.5 548.24 493.893 286.957 254.784 249.079 250.438 485.895 454.032 194.358 399.227 223.369 131.747
internal_count=28801 23725 9940 13785 10943 6962 2978 9938 5076 2947 2842 5629 4923 8787 2199 1981 1151 1021 998 1005 1949 1821 779 1601 895 528
is_linear=0
shrinkage=0.094472


Tree=2
num_leaves=27
num_cat=0
split_feature=20 125 0 125 127 20 125 125 127 0 20 0 99 20 0 120 20 2 127 2 125 15 125 0 120 127
split_gain=1909.78 904.058 731.658 473.153 399.861 366.7 310.977 298.173 242.247 175.974 99.9292 96.3439 93.1574 68.5443 105.36 58.9286 52.7798 50.2284 38.3158 26.4492 24.8241 21.8748 21.4023 19.7533 17.7864 15.0113
threshold=-0.67297695856039985 0.11565687819780808 -0.35011291976840936 0.071231224772482074 0.00075572915034069802 -0.32503425276255887 0.0013847465299591537 0.071205814029582634 0.16082239058305062 -0.66942263980791739 -0.84694831145932048 -0.65168234413500814 1.0000000180025095e-35 -0.84694831145932048 -0.64775523988147066 1.0000000180025095e-35 -0.49900560566147939 -0.23956403310267108 0.041267293235165321 -0.37890714536799852 0.040957389411449309 1.7964752035030147 0.008805554200596399 1.7507123636695712 1.0000000180025095e-35 0.0046561178558410668
decision_type=2 2 2 2 2 2 2 2 2 2 2 2 2 2 2 2 2 2 2 2 2 2 2 2 2 2
left_child=9 2 4 5 11 18 16 -7 -8 10 20 24 13 -11 17 -13 -6 -15 -4 -12 -1 -3 -16 -23 -2 -14
right_child=1 21 3 -5 6 7 8 -9 -10 12 19 15 25 14 22 -17 -18 -19 -20 -21 -22 23 -24 -25 -26 -27
leaf_value=0.12008482363418914 0 0.12287176713112119 0.11836831116363297 -0.16533401982550339 0.0841584970479924 -0.012831566691387422 -0.090945132149478441 0.12766947393101735 0.032650902476183075 0.15477642609400166 0.049112415645488301 0.11675001557604839 0.010293902967957024 0.065717000582988239 0.14936897381475431 -0.024131910636948403 -0.0043802207786363357 -0.046674007924421015 0.053977036255684431 -0.05927363870658986 -0.0021773571998869672 -0.019855270632920204 0.095654821696716588 0.095711979621243476 -0.098506437791573628 -0.11143168076960004
leaf_weight=64.82389734685421 78.550318345427513 352.47103817760944 259.23592089116573 129.37535643577576 76.498003616929054 1716.3572687953711 2395.2721637636423 140.43148392438889 144.27649210393429 443.88112638890743 17.951676219701767 135.14329949021339 9.916016027331354 90.914566874504089 208.97925256192684 26.765664383769035 202.73809479176998 48.373323991894722 172.99889187514782 91.21271900832653 13.127886101603506 21.367144256830215 256.2997422516346 16.898434773087502 16.647209301590919 11.459220841526983
leaf_count=261 315 1419 1045 525 308 6921 9656 566 581 1798 72 543 40 365 847 108 816 194 701 366 53 86 1034 68 67 46
internal_value=0 -0.0225426 -0.0324927 0.00628726 -0.0630256 0.0164962 -0.073351 -0.00169781 -0.0837593 0.105488 0.0185738 0.0482756 0.120258 0.124364 0.100341 0.0918216 0.0201409 0.0245199 0.0942629 -0.0375308 0.0975393 0.115127 0.121887 0.0309038 -0.0241274 -0.0548328
internal_weight=0 5885.03 5494.29 2418.4 3075.89 2289.02 2818.78 1856.79 2539.55 1256.94 187.116 257.106 1069.82 1048.45 604.567 161.909 279.236 139.288 432.235 109.164 77.9518 390.737 465.279 38.2656 95.1975 21.3752
internal_count=28801 23725 22152 9758 12394 9233 11361 7487 10237 5076 752 1033 4324 4238 2440 651 1124 559 1746 438 314 1573 1881 154 382 86
is_linear=0
shrinkage=0.094472


Tree=3
num_leaves=27
num_cat=0
split_feature=20 1 1 121 20 127 21 1 1 0 0 20 126 1 1 39 1 126 86 125 125 121 21 1 127 125
split_gain=1593.22 1401.4 1112.99 588.671 477.743 378.801 356.058 211.951 928.224 194.287 148.565 180.434 106.133 82.2324 375.411 62.5218 54.8563 58.4512 46.7341 34.4748 30.6856 27.0217 22.9206 172.59 18.8663 17.7898
threshold=-0.67297695856039985 0.45695658729104821 -0.57664773877483355 1.0000000180025095e-35 1.2407079233277261 0.16082239058305062 1.0000000180025095e-35 1.4817183489063879 0.45818431521284736 -0.61627704730835664 -0.64775523988147066 -0.84694831145932048 0.00083903944912993016 1.4998013160058898 2.526363446039801 1.0000000180025095e-35 0.45695658729104821 0.00016790385498508296 1.0000000180025095e-35 0.046468112252697244 0.00083935347785192376 1.0000000180025095e-35 1.0000000180025095e-35 -0.54390477159541628 0.019124894011736882 0.008805554200596399
decision_type=2 2 2 2 2 2 2 2 2 2 2 2 2 2 2 2 2 2 2 2 2 2 2 2 2 2
left_child=10 2 3 9 5 -5 7 8 12 20 11 19 -3 -9 -15 -6 17 -13 -11 -1 -2 -19 -12 25 -21 -24
right_child=1 6 -4 4 15 -7 -8 13 -10 18 22 16 -14 14 -16 -17 -18 21 -20 24 -22 -23 23 -25 -26 -27
leaf_value=0.13044570835888114 0.066440914298631373 0.12777906520648671 -0.16154483051329008 -0.075678444681110582 0.082472313822003124 0.051024375463017219 -0.14920215395682374 0.13494757004951993 -0.1783998589006186 0.083440136239620516 0.14128290221428014 0.10814702396938662 0.049462948658483712 -0.16431222059494219 0.10720132983889348 -0.1044940909330799 0.12291406634758711 0.0090398838995248022 -0.050539279146455729 0.072534130804028721 -0.028350861239654097 -0.059460818152311391 0.14189097932773134 -0.134816005444546 -0.073551147992607896 0.08604956359804207
leaf_weight=177.16353812813759 27.394902229309082 214.75040265917778 670.31084585189819 2158.6312522292137 243.2353463768959 226.67960205674171 70.36534583568573 332.87520837783813 152.81514604389668 484.04280404746532 405.47458425164223 22.597169384360313 651.24466869235039 48.230568274855614 275.42305125296116 10.984841316938398 21.99351467192173 69.239434793591499 18.180263251066208 10.10397280752659 270.39121912419796 134.41353753209114 174.59086608886719 20.700237080454826 9.918672710657118 193.16754607856274
leaf_count=726 110 870 2756 8739 980 911 288 1349 616 1953 1684 91 2637 194 1115 44 89 278 73 42 1090 540 719 83 40 784
internal_value=0 -0.0204853 -0.0506209 -0.0286909 -0.0502335 -0.0634307 0.0502408 0.0592613 0.0316073 0.041902 0.0971832 0.0514696 0.0699106 0.101119 0.0637522 0.0712158 -0.00144614 -0.0174542 0.0775399 0.117564 -0.0176442 -0.0352751 0.121937 0.0992862 0 0.115065
internal_weight=0 5855.56 4109.85 3439.54 2639.53 2385.31 1745.7 1675.34 1018.81 800.009 1239.36 445.43 865.995 656.529 323.654 254.22 248.244 226.25 502.223 197.186 297.786 203.653 793.933 388.459 20.0226 367.758
internal_count=28801 23725 16656 13900 10674 9650 7069 6781 4123 3226 5076 1806 3507 2658 1309 1024 998 909 2026 808 1200 818 3270 1586 82 1503
is_linear=0
shrinkage=0.094472


Tree=4
num_leaves=27
num_cat=0
split_feature=20 1 1 121 20 127 21 1 1 0 0 99 1 1 20 15 20 1 1 39 39 0 21 121 127 21
split_gain=1342.64 1162.87 961.741 486.307 393.698 314.342 301.395 178.177 774.06 159.952 133.07 77.1144 70.2468 316.022 69.9735 66.1451 55.5579 85.3546 106.14 54.01 41.9187 21.2906 20.7899 12.8689 10.484 9.82744
threshold=-0.67297695856039985 0.45695658729104821 -0.57664773877483355 1.0000000180025095e-35 1.2407079233277261 0.16082239058305062 1.0000000180025095e-35 1.4817183489063879 0.45818431521284736 -0.61627704730835664 -0.66942263980791739 1.0000000180025095e-35 1.4998013160058898 2.526363446039801 -0.84694831145932048 0.97167493901517255 -0.84694831145932048 0.45695658729104821 -0.55635943398423182 1.0000000180025095e-35 1.0000000180025095e-35 -0.6566319563748485 1.0000000180025095e-35 1.0000000180025095e-35 0.0013420829623503906 1.0000000180025095e-35
decision_type=2 2 2 2 2 2 2 2 2 2 2 2 2 2 2 2 2 2 2 2 2 2 2 2 2 2
left_child=10 2 3 9 5 -5 7 8 15 21 14 16 -9 -14 25 -3 -12 18 -18 -6 -11 -2 -16 -13 -24 -1
right_child=1 6 -4 4 19 -7 -8 12 -10 20 11 23 13 -15 22 -17 17 -19 -20 -21 -22 -23 24 -25 -26 -27
leaf_value=0.12503122667126632 0.011060122838761302 0.07606547422644061 -0.15134170290943186 -0.06907954761147575 0.075176293863542229 0.04629631883599751 -0.13977468395334375 0.1246238088160658 -0.1639466145555363 0.08112360122094972 0.13542554469773688 0.0048351072609020117 -0.15142122438517044 0.098457750379329342 0.040941807531238647 0.0054408897805999978 0.069239695498355042 0.1354725222418437 -0.12826221199572818 -0.098398443433683883 0 -0.037967112820962344 0.0035262803362203759 -0.10741405143193329 -0.066784838332287724 0.03692316883980129
leaf_weight=30.008222028613091 129.85192504525185 706.78831018507481 649.2920901030302 2142.7483212500811 242.23747463524342 226.80759425461292 68.493106096982956 327.14488726854324 151.15165828168392 433.65935319662094 422.61263889074326 9.7755926549434662 47.895182982087135 272.21612468361855 19.321275383234024 153.10250613093376 362.63294738531113 204.15473158657551 19.874806061387062 10.923283681273459 65.919086575508118 167.38080655038357 14.873960375785826 11.326746895909309 74.277852222323418 45.678686439990997
leaf_count=125 524 2886 2756 8739 980 911 288 1349 616 1759 1798 40 194 1115 78 621 1486 874 80 44 267 676 60 46 300 189
internal_value=0 -0.0187817 -0.0463658 -0.0261331 -0.0457981 -0.0578368 0.0459965 0.0542896 0.0288537 0.0381221 0.0902374 0.103441 0.0930024 0.0582236 0.0140415 0.0639227 0.107327 0.0855083 0.0565291 0.0646189 0.0705851 -0.015855 -0.0324401 -0.0554959 -0.0527092 0.0815513
internal_weight=0 5795.61 4068.82 3419.53 2622.72 2369.56 1726.79 1658.3 1011.04 796.811 1214.54 1030.38 647.256 320.111 184.16 859.891 1009.28 586.662 382.508 253.161 499.578 297.233 108.473 21.1023 89.1518 75.6869
internal_count=28801 23725 16656 13900 10674 9650 7069 6781 4123 3226 5076 4324 2658 1309 752 3507 4238 2440 1566 1024 2026 1200 438 86 360 314
is_linear=0
shrinkage=0.094472


Tree=5
num_leaves=27
num_cat=0
split_feature=20 21 22 125 121 120 20 125 20 20 0 121 39 121 120 4 125 0 0 125 67 2 0 39 125 0
split_gain=1133.4 673.534 559.093 480.53 419.313 168.864 163.309 151.21 134.414 119.169 159.805 101.07 125.16 100.759 97.8531 73.6484 66.6522 39.295 36.4681 43.3563 28.1401 27.1694 44.9905 43.8917 22.2101 17.6506
threshold=-0.67297695856039985 1.0000000180025095e-35 1.0000000180025095e-35 0.11565687819780808 1.0000000180025095e-35 1.0000000180025095e-35 0.71879386463096429 0.00092457022397821151 -0.49900560566147939 -0.84694831145932048 -0.65168234413500814 1.0000000180025095e-35 1.0000000180025095e-35 1.0000000180025095e-35 1.0000000180025095e-35 -0.027613470551028415 0.071231224772482074 -0.52764235473700427 -0.47392786525490654 0.0080533346810458383 1.0000000180025095e-35 -0.23956403310267108 -0.67064061113727524 1.0000000180025095e-35 0.03622721590850253 -0.5084672427559972
decision_type=2 2 2 2 2 2 2 2 2 2 2 2 2 2 2 2 2 2 2 2 2 2 2 2 2 2
left_child=9 2 8 4 14 7 13 -6 -2 -1 21 20 -13 -4 16 -15 -3 -16 19 25 -10 22 -11 -24 -21 -12
right_child=1 3 6 -5 5 -7 -8 -9 11 10 18 12 -14 15 17 -17 -18 -19 -20 24 -22 -23 23 -25 -26 -27
leaf_value=0.12043777969365242 0.11589033967213849 0.043758763464928949 0.0085527647688355222 0.090136742540899262 0.036825929599196595 -0.15214314862032943 0.070520886762567778 -0.069595081423158095 0.1004494135173048 -0.040203755246405515 0.1197420036484426 0.03239385635460313 -0.14959034604760457 -0.084104218013710708 -0.086875840317162639 0.11481783825292499 -0.11426416067149649 0.0022457542498063783 0.11883722386789229 -0.010240541894187343 0 -0.071010436615501937 0.073045611247510495 -0.082084255262265621 0.059684496618034814 0
leaf_weight=486.12755617499352 252.13717943429947 454.55107936263084 142.96505273878574 213.48691546916962 119.32365308701992 215.71845892071724 90.475497171282768 2136.5659301877022 251.18461033701897 83.269918486475945 90.712503746151924 1057.2773353606462 28.733953565359116 538.84312754869461 91.729186370968819 11.178765803575514 18.822748735547066 69.779277145862579 218.52317360043526 76.041709378361702 25.592991009354591 40.774609059095383 95.176617845892906 12.898159146308897 67.536535710096359 15.469177275896071
leaf_count=2129 1056 1851 581 876 483 909 370 8926 1048 338 392 4371 117 2246 377 45 78 285 949 315 106 164 387 52 283 67
internal_value=0 -0.0172875 0.0207541 -0.0448386 -0.0543511 -0.0719257 -0.0443331 -0.0637671 0.0525423 0.0839604 0.0574832 0.0401856 0.0265666 -0.0601731 0.0136775 -0.0784257 0.0356118 -0.048008 0.0889698 0.0596884 0.0910343 -0.00552104 0.00873496 0.0489391 0.0218785 0.104641
internal_weight=0 5718.37 2398.39 3319.98 3106.49 2471.61 783.462 2255.89 1614.93 1186.53 700.402 1362.79 1086.01 692.987 634.882 550.022 473.374 161.508 468.283 249.76 276.778 232.119 191.345 108.075 143.578 106.182
internal_count=28801 23725 9940 13785 12909 10318 3242 9409 6698 5076 2947 5642 4488 2872 2591 2291 1929 662 2006 1057 1154 941 777 439 598 459
is_linear=0
shrinkage=0.094472


Tree=6
num_leaves=27
num_cat=0
split_feature=20 121 127 127 127 126 0 0 20 99 67 127 126 126 126 126 127 127 127 90 126 127 0 39 0 14
split_gain=956.813 548.945 683.22 905.028 391.941 609.535 195.619 109.456 114.247 81.3934 70.5307 102.74 57.7328 56.4703 258.538 44.2831 34.4163 34.3 71.6126 28.5401 27.6987 35.4607 21.2824 21.1846 17.4313 16.6021
threshold=-0.67297695856039985 1.0000000180025095e-35 0.16082239058305062 0.068447151252661279 0.068441745374262383 0.015099535816924718 -0.4784679367602977 -0.64775523988147066 -0.84694831145932048 1.0000000180025095e-35 1.0000000180025095e-35 0.01446781750553309 8.404021271936548e-05 0.014722387192066333 0.068898147788701777 0.00020990558165880153 0.0012163591959275558 0.040128767118413657 0.014830066365705014 1.0000000180025095e-35 0.061823134614036872 0.041267293235165321 -0.61626976345069251 1.0000000180025095e-35 -0.6507206064825547 4.4009332853140171
decision_type=2 2 2 2 2 2 2 2 2 2 2 2 2 2 2 2 2 2 2 2 2 2 2 2 2 2
left_child=7 6 3 4 5 -3 12 8 24 -9 19 16 -2 25 -15 -10 -12 18 -14 23 21 -17 -6 -8 -1 -4
right_child=1 2 13 -5 22 -7 10 9 15 -11 11 -13 17 14 -16 20 -18 -19 -20 -21 -22 -23 -24 -25 -26 -27
leaf_value=0.10115029389696611 0.081615307375718607 -0.019111600074153461 0.10004985033473483 -0.15408543892861132 0.026445974128838704 -0.15137252511552518 0.10146341815611297 0.10620966406405195 0.095828099114789081 -0.065345267982244173 0.01722578119322949 0.099057757735863505 -0.0054298102555638923 -0.15071320755021558 0.085013056529568073 -0.0074646384208604593 -0.14852089753507328 0.068817845095010308 -0.1367091028540568 -0.02779405204025269 0.083750754545930103 -0.10493733370005352 0.1187516041454471 0.036447341248815976 -0.0018879379014100166 0
leaf_weight=171.4259232878685 64.423174366354942 2826.031255453825 294.3860906213522 571.20103478431702 39.821596667170525 345.3743449151516 450.67711208760738 710.04692925512791 28.530896365642548 19.940403953194618 10.712897926568983 37.677538961172104 439.31251895427704 48.005313470959663 172.75806120038033 162.84427005052567 30.201042205095291 38.606873407959938 35.433621436357498 12.051975622773169 14.472228497266768 39.149119362235069 153.95909038186073 74.437025025486946 10.190849736332892 10.422787845134733
leaf_count=763 265 11867 1213 2441 164 1480 1897 3188 118 82 44 156 1801 199 723 662 125 159 147 50 59 159 640 310 45 44
internal_value=0 -0.0158298 -0.0310841 -0.0446463 -0.0257583 -0.0338488 0.0408479 0.0782709 0.0384687 0.100681 0.0776408 -0.00254651 0.000793769 0.0693665 0.0300296 -0.00287186 -0.102574 -0.00962327 -0.0173136 0.0897724 -0.0192455 -0.0300448 0.102449 0.0932518 0.094048 0.0959008
internal_weight=0 5655.49 4461.96 3936.39 3365.19 3171.41 1193.53 1156.6 426.613 729.987 615.758 78.5915 577.776 525.572 220.763 244.997 40.9139 513.353 474.746 537.166 216.466 201.993 193.781 525.114 181.617 304.809
internal_count=28801 23725 18771 16592 14151 13347 4954 5076 1806 3270 2582 325 2372 2179 922 998 169 2107 1948 2257 880 821 804 2207 808 1257
is_linear=0
shrinkage=0.094472


Tree=7
num_leaves=27
num_cat=0
split_feature=1 1 20 125 20 0 121 21 1 1 125 20 0 20 1 1 121 64 0 6 0 2 7 7 0 0
split_gain=837.19 1151.52 489.083 364.166 323.911 304.844 188.231 175.995 156.044 497.001 138.416 100.449 81.4573 79.7874 51.376 223.354 35.6249 22.5139 9.73716 8.51966 8.00326 4.8289 5.97383 6.83801 1.60575 3.50912
threshold=0.45695658729104821 -0.57664773877483355 -0.67297695856039985 0.11565687819780808 -0.49900560566147939 -0.33908589010439033 1.0000000180025095e-35 1.0000000180025095e-35 1.4817183489063879 0.45818431521284736 0.0085210762196278895 -0.84694831145932048 -0.63263013531154233 0.89276521752988491 1.4998013160058898 2.526363446039801 1.0000000180025095e-35 1.0000000180025095e-35 -0.47392786525490654 -0.050021339816532409 -0.67038764472920953 5.4682170599444921 -0.20124177853141842 0.62959002989641044 -0.63595675112026973 -0.65367075238709804
decision_type=2 2 2 2 2 2 2 2 2 2 2 2 2 2 2 2 2 2 2 2 2 2 2 2 2 2
left_child=1 2 11 5 20 6 -4 8 9 13 -7 17 16 -6 -10 -16 -13 19 -14 -1 -2 22 -22 -24 25 -5
right_child=4 -3 3 24 7 10 -8 -9 14 -11 -12 12 18 -15 15 -17 -18 -19 -20 -21 21 -23 23 -25 -26 -27
leaf_value=0.11114473047408259 0.00076804821785660473 -0.13977621978168009 0.0039072521629214237 0.063719187579833123 0.026753964053513466 0.073923899597989812 -0.061506856100828657 -0.12435464287370578 0.1055691992958285 -0.15095068894438943 -0.0056040821510961181 0.042097680629423949 0.050604192761647647 0.11533150658455533 -0.13880018379072698 0.081542823638697692 -0.030506698721858998 -0.0010693889549906524 0.10594311973459128 0 0.12295763715422496 0.014286548363655586 0.038857138218941087 0.10683087769275836 0.10215379425860717 0
leaf_weight=308.71468608081341 10.589000314474104 629.11362779140472 499.78875501453876 30.833283349871635 587.50244489312172 272.51342968642712 1693.8267796486616 59.029636085033417 255.14429181814194 138.28033791482449 635.45736500620842 89.77550208568573 121.50677126646042 107.13445229828358 43.742444410920143 226.11389562487602 155.63690535724163 12.434133842587469 82.611799642443657 9.5961854755878431 436.19863310456276 12.186076685786245 56.276725292205811 46.607749164104462 184.9094529747963 13.304902195930479
leaf_count=1435 45 2893 2033 125 2444 1121 7149 269 1098 585 2643 368 528 450 182 952 638 56 368 45 2025 56 252 212 775 54
internal_value=0 -0.0213517 -0.0029925 -0.0188453 0.0517191 -0.0274553 -0.0465092 0.0271817 0.0344653 0.00852445 0.0182856 0.0639738 0.0333236 0.0416382 0.0745721 0.0426892 -0.00251542 0.103544 0.0765838 0.10841 0.112219 0.113845 0.115425 0.0761717 0.0944052 0.0484789
internal_weight=0 4740.02 4110.91 3330.63 1978.81 3101.59 2193.62 1416.95 1357.92 832.917 907.971 780.276 449.531 694.637 525.001 269.856 245.412 330.745 204.119 318.311 561.858 551.269 539.083 102.884 229.048 44.1382
internal_count=28801 20231 17338 13900 8570 12946 9182 5980 5711 3479 3764 3438 1902 2894 2232 1134 1006 1536 896 1480 2590 2545 2489 464 954 179
is_linear=0
shrinkage=0.094472


Tree=8
num_leaves=24
num_cat=0
split_feature=1 1 20 125 20 125 125 21 1 1 20 0 20 99 1 1 125 125 0 15 120 0 14
split_gain=704.845 1010.27 412.303 305.988 286.405 256.892 447.1 151.902 132.552 423.287 89.1615 69.9035 69.1363 46.0397 44.6998 190.734 25.7415 15.2429 23.8059 9.02965 10.7093 8.78385 0.599063
threshold=0.45695658729104821 -0.57664773877483355 -0.67297695856039985 0.11565687819780808 -0.49900560566147939 0.071231224772482074 0.071205814029582634 1.0000000180025095e-35 1.4817183489063879 0.45818431521284736 -0.84694831145932048 -0.63263013531154233 0.89276521752988491 1.0000000180025095e-35 1.4998013160058898 2.526363446039801 0.004026423045576843 0.026257517516574493 -0.63939515971536942 0.7658400092702341 1.0000000180025095e-35 -0.47392786525490654 0.14473756061927417
decision_type=2 2 2 2 2 2 2 2 2 2 2 2 2 2 2 2 2 2 2 2 2 2 2
left_child=1 2 10 5 13 6 -4 8 9 12 17 16 -6 -2 22 -16 -12 -1 -19 20 -5 -13 -10
right_child=4 -3 3 19 7 -7 -8 -9 14 -11 11 21 -14 -15 15 -17 -18 18 -20 -21 -22 -23 -24
leaf_value=0.1109637154555687 0.11109030853883216 -0.13375942317041664 -0.026603412898907178 0.098374239820504056 0.024353534577016767 -0.13981017876117285 0.14874896168799726 -0.11873625452812381 0.11282349981139228 -0.14217948743321721 0.045513261091857452 0.046701896492434815 0.1077479970700336 -0.03526019766249034 -0.13048804168337025 0.075389115398377421 -0.021442990004709023 0 0.095944530356766283 0 0 0.099958259447891468 0.07056862289098699
leaf_weight=241.7841881364584 525.71516366302967 597.11704286932945 2788.0121346265078 195.2378772944212 585.12729869782925 159.85991705954075 130.04056863486767 56.384024813771248 147.07016924023628 133.52546159923077 64.302748799324036 119.79037329554558 104.38157007098198 14.516401082277296 42.557265728712082 222.13455285131931 180.73062683641911 37.986138135194778 37.887018755078316 14.23184150457382 15.759664937853811 79.771424576640129 100.81233282387257
leaf_count=1176 2528 2893 11698 826 2444 712 536 269 651 585 265 528 450 62 182 952 741 174 186 59 69 368 447
internal_value=0 -0.019626 -0.00263022 -0.017164 0.0481489 -0.0250607 -0.0184186 0.0250292 0.0317842 0.00778725 0.0596547 0.030807 0.0381558 0.106332 0.0692795 0.0392127 -0.00215301 0.0979256 0.0481657 0.0875122 0.0923741 0.0715153 0.0986988
internal_weight=0 4662.51 4065.39 3303.14 1932.22 3077.91 2918.05 1391.99 1335.61 823.034 762.253 444.595 689.509 540.232 512.574 264.692 245.033 317.657 75.8732 225.229 210.998 199.562 247.883
internal_count=28801 20231 17338 13900 8570 12946 12234 5980 5711 3479 3438 1902 2894 2590 2232 1134 1006 1536 360 954 895 896 1098
is_linear=0
shrinkage=0.094472


Tree=9
num_leaves=27
num_cat=0
split_feature=20 1 20 127 1 1 125 125 125 2 20 39 1 1 127 1 99 96 1 1 108 127 3 3 127 39
split_gain=596.531 401.273 372.864 298.603 253.458 278.589 234.567 212.376 171.871 144.372 79.6167 77.9143 53.8621 185.851 50.8772 45.7381 41.4419 38.4456 29.1567 147.938 25.6419 19.75 9.4308 7.86627 7.12536 5.96129
threshold=-0.49900560566147939 1.4817183489063879 1.0667365704288054 0.00071428988067915916 0.45695658729104821 -0.57664773877483355 0.11565687819780808 0.0014260256394878974 0.004026423045576843 -0.37890714536799852 -0.84694831145932048 1.0000000180025095e-35 1.4998013160058898 2.526363446039801 0.019124894011736882 0.45818431521284736 1.0000000180025095e-35 1.0000000180025095e-35 2.5344190197345484 3.5601144560817661 1.0000000180025095e-35 0.041267293235165321 -0.29827083716943931 0.68732820401735062 0.00016790385498508296 1.0000000180025095e-35
decision_type=2 2 2 2 2 2 2 2 2 2 2 2 2 2 2 2 2 2 2 2 2 2 2 2 2 2
left_child=4 2 3 24 5 8 7 -5 17 14 -11 15 -3 -14 -10 20 -6 -1 -15 -20 -4 -8 -13 -24 -2 -26
right_child=1 12 11 6 16 -7 21 -9 9 10 -12 22 13 18 -16 -17 -18 -19 19 -21 -22 -23 23 -25 25 -27
leaf_value=0.094418999142078769 0.091385964470438494 0.092546523252504564 0.063459404002631392 0.021980519845501593 0.10545254140419075 -0.12868221625055448 0.07904595098144572 -0.061460444581044944 0.089271834245177206 0.056702133830245458 -0.031517678526063388 0 -0.12486758200249072 0.10178691769260438 0.011226187178911077 -0.085143636556539559 -0.032764656078037045 -0.060345860891109666 -0.16217192099632857 0.08380219286033623 -0.054928726672650106 0 -0.10292744321911108 0 0.048590674732159618 -0.004660542649280096
leaf_weight=359.20146428048611 65.940737873315811 240.6288565248251 482.19948489964008 293.6932525485754 502.93073512613773 94.021572217345238 121.79009339213371 2787.1105780899525 212.65332156419754 104.8570494055748 489.1485218256712 12.719742238521574 50.09741336107254 108.57455268502235 129.01293188333511 13.803136751055716 14.582219913601874 9.0288009494543058 22.159672617912292 90.479960352182388 10.235572770237921 41.170583322644234 28.58541476726532 10.706922233104704 166.07169650495052 9.8564095795154554
leaf_count=1651 279 1099 2056 1242 2528 457 516 12319 951 512 2076 53 226 477 574 64 62 38 94 397 43 177 124 46 699 41
internal_value=0 -0.0183097 -0.0283466 -0.0398679 0.0444455 0.0230905 -0.0474822 -0.0533923 0.0347593 0.0126998 -0.015099 0.0427838 0.0598843 0.0286178 0.0612545 0.0544538 0.100724 0.0890302 0.0668565 0.0275881 0.0598492 0.0606547 -0.0602256 -0.0807394 0.0598871 0.0440684
internal_weight=0 4555.82 4043.88 3485.63 1915.44 1397.92 3243.76 3080.8 1303.9 935.672 594.006 558.25 511.94 271.312 341.666 506.238 517.513 368.23 221.214 112.64 492.435 162.961 52.0121 39.2923 241.869 175.928
internal_count=28801 19952 17659 15273 8849 6259 14254 13561 5802 4113 2588 2386 2293 1194 1525 2163 2590 1689 968 491 2099 693 223 170 1019 740
is_linear=0
shrinkage=0.094472


Tree=10
num_leaves=27
num_cat=0
split_feature=121 1 1 120 39 20 20 1 1 20 1 1 120 39 3 99 1 1 39 39 7 20 55 7 64 1
split_gain=557.943 467.921 545.212 315.149 183.076 194.884 160.445 97.7562 325.634 91.8158 76.63 125.458 78.2894 58.1174 41.7288 37.7545 37.6107 131.191 28.7096 19.5751 18.3085 17.5577 17.4839 16.1331 8.59238 5.46492
threshold=1.0000000180025095e-35 0.45695658729104821 -0.57664773877483355 1.0000000180025095e-35 1.0000000180025095e-35 1.2407079233277261 -0.49900560566147939 1.4817183489063879 0.45818431521284736 -0.67297695856039985 0.45695658729104821 -0.57664773877483355 1.0000000180025095e-35 1.0000000180025095e-35 -0.15451847217922501 1.0000000180025095e-35 1.4998013160058898 2.526363446039801 1.0000000180025095e-35 1.0000000180025095e-35 -0.20124177853141842 0.71879386463096429 1.0000000180025095e-35 0.62959002989641044 1.0000000180025095e-35 0.49233662392144778
decision_type=2 2 2 2 2 2 2 2 2 2 2 2 2 2 2 2 2 2 2 2 2 2 2 2 2 2
left_child=9 2 3 4 5 -2 20 8 13 18 11 12 14 -8 -11 19 -9 -18 22 -12 -3 -14 24 25 -1 -22
right_child=1 6 -4 -5 -6 -7 7 16 -10 10 15 -13 21 -15 -16 -17 17 -19 -20 -21 23 -23 -24 -25 -26 -27
leaf_value=0.11203776970118946 -0.013755531431145128 0.096550138535916902 -0.12567447760650191 -0.14000671136446236 -0.13917558855733606 0.076948542720919916 0.031779103378768291 0.080033931691240887 -0.12965942015854609 0.032088188943850147 0.093257303905720706 -0.11567107564875356 -0.034181143645429013 -0.1230712391604806 0.094014336009118724 -0.05356418884989906 -0.11632294143048158 0.055668121595137426 0.011685201011724039 0.018276110546930076 0.020917426660088424 0.033806393343084516 0 0.076643859238240297 0.027225594146933915 -0.042354403067414621
leaf_weight=280.79205378890038 2450.0005709826946 282.19473499059677 492.98689849674702 173.7872858196497 89.829147502779961 225.1214919090271 505.64930212497711 180.59951829910278 151.40293848514557 445.76304666697979 258.70368728041649 50.09173196554184 159.71207275986671 16.365595147013664 134.67448343336582 13.027262374758719 43.50490690767765 188.13249054551125 44.720746979117393 49.486289620399475 12.445066854357718 33.934834599494934 18.228081047534943 25.993519201874733 24.598360076546669 19.64064222574234
leaf_count=1412 10716 1487 2626 787 394 939 2117 839 731 1840 1205 244 665 66 577 57 206 836 210 222 60 144 86 131 114 90
internal_value=0 -0.015312 -0.0342338 -0.0185864 -0.0105816 -0.00587259 0.0299922 0.0117807 -0.0100865 0.0502692 0.036358 0.0203833 0.0303242 0.0251207 0.0477008 0.0754376 0.0477942 0.0201869 0.0915783 0.0826344 0.0861514 -0.02028 0.101401 0.0272395 0.106705 -0.0112349
internal_weight=0 4857.65 3431.73 2938.74 2764.95 2675.12 1425.93 1085.65 673.418 1513.73 1145.39 824.176 774.084 522.015 580.438 321.217 412.237 231.637 368.339 308.19 340.274 193.647 323.618 58.0792 305.39 32.0857
internal_count=28801 22025 15462 12836 12049 11655 6563 4795 2914 6776 4954 3470 3226 2183 2417 1484 1881 1042 1822 1427 1768 809 1612 281 1526 150
is_linear=0
shrinkage=0.094472


Tree=11
num_leaves=27
num_cat=0
split_feature=20 1 1 0 125 21 125 125 0 125 125 125 20 20 0 21 125 3 125 120 64 125 20 15 0 3
split_gain=472.728 395.499 551.712 244.858 169.393 136.756 109.16 81.3527 79.6868 79.1584 73.0487 126.74 62.8512 50.0004 49.9204 48.4283 43.1439 33.1251 21.3215 14.3237 12.2947 11.9349 12.1841 10.2775 7.78572 16.5564
threshold=-0.67297695856039985 0.45695658729104821 -0.57664773877483355 -0.3424112205881828 0.11565687819780808 1.0000000180025095e-35 0.071231224772482074 0.0085210762196278895 -0.66942263980791739 0.0020976869941272975 0.11565687819780808 0.071231224772482074 1.2407079233277261 -0.84694831145932048 -0.47392786525490654 1.0000000180025095e-35 0.0025586019668486074 3.4992868714754892 0.11565687819780808 1.0000000180025095e-35 1.0000000180025095e-35 0.0082633033997641051 -0.84694831145932048 2.0415518119111344 0.13925900325810142 1.0000000180025095e-35
decision_type=2 2 2 2 2 2 2 2 2 2 2 2 2 2 2 2 2 2 2 2 2 2 2 2 2 2
left_child=8 2 3 4 6 9 -2 17 15 24 11 -11 -9 20 16 -1 -15 -5 -18 -6 -10 22 -17 -12 25 -3
right_child=1 5 -4 7 19 -7 -8 12 13 10 23 -13 -14 14 -16 21 18 -19 -20 -21 -22 -23 -24 -25 -26 -27
leaf_value=0.080651349313930767 -0.031935673198095572 0.070633315817347456 -0.1212459467941092 0.077116926996368684 0.083304054125163382 -0.11086394985364252 -0.12905820761076361 -0.0053012627008210758 0.10413321025696892 0.022660458500882698 0.10454441618084363 -0.13612676086301523 0.063900567456471324 0.088340600400457547 0.091894046434134416 0.055708333937099876 0 -0.05262005605608587 0.090482672674455297 -0.0063154692072736945 0 -0.056486972043300131 -0.026553846936961199 0.013025612925261795 0.1060429961757484 -0.011199447172704768
leaf_weight=42.679455384612083 2009.2406286597252 123.2582859992981 485.01604732871056 257.2474265396595 113.37611630558968 53.653294086456299 106.40130294859409 578.75641573965549 316.26292170584202 1064.5191649347544 102.10078878700733 40.747599139809608 139.3875412940979 75.661136344075203 174.33036541938782 18.176761865615845 245.90026700496674 12.385750308632849 19.608374550938606 11.165045797824858 8.7007308304309827 64.306736290454865 43.057179316878319 22.010673075914383 113.79302352666855 18.303442314267159
leaf_count=203 8645 576 2756 1076 491 288 507 2481 1771 4803 487 186 601 373 949 93 1097 51 90 48 44 278 178 100 543 86
internal_value=0 -0.0111306 -0.0278454 -0.0135368 -0.0308461 0.02899 -0.0372852 0.0253986 0.0593063 0.0346345 0.024151 0.0158871 0.00815975 0.0711115 0.0507625 0 0.0277886 0.0691998 0.00802645 0.0732744 0.101127 -0.02986 0 0.0916918 0.0824236 0.0581963
internal_weight=0 5251.36 3712.98 3227.96 2240.18 1538.39 2115.64 987.777 1008.68 1484.73 1229.38 1105.27 718.144 840.464 515.5 168.22 341.17 269.633 265.509 124.541 324.964 125.541 61.2339 124.111 255.355 141.562
internal_count=28801 23725 16656 13900 9691 7069 9152 4209 5076 6781 5576 4989 3082 4324 2509 752 1560 1127 1187 539 1815 549 271 587 1205 662
is_linear=0
shrinkage=0.094472


Tree=12
num_leaves=27
num_cat=0
split_feature=126 127 127 1 1 127 20 120 1 99 32 126 126 20 126 126 126 126 126 127 127 126 126 127 3 127
split_gain=431.114 485.708 1031.73 327.628 433.192 205.917 125.892 74.8212 69.2344 35.3476 33.5753 33.3308 111.372 31.9346 41.5785 89.3254 65.9416 26.9067 19.4613 7.9606 7.18905 7.11973 154.989 1.7201 0.524085 0.19152
threshold=0.00020990558165880153 0.16082239058305062 0.068447151252661279 0.45695658729104821 -0.57664773877483355 0.068441745374262383 -0.49900560566147939 1.0000000180025095e-35 1.4817183489063879 1.0000000180025095e-35 1.0000000180025095e-35 8.404021271936548e-05 0.00012576070307267122 -0.49900560566147939 0.011030009827199982 0.068898147788701777 0.014722387192066333 4.2023119839014811e-05 0.00012581639938369439 0.038953384729485487 0.00012744183854608714 8.3784045766276304e-05 4.2023119839014811e-05 0.0036067795105410388 -0.19495667866674804 0.00021113028559017206
decision_type=2 2 2 2 2 2 2 2 2 2 2 2 2 2 2 2 2 2 2 2 2 2 2 2 2 2
left_child=7 2 3 4 5 -2 9 10 -8 -5 11 21 -13 -3 -15 16 -16 23 -14 20 -19 22 -1 -9 -17 -22
right_child=1 13 -4 6 -6 -7 8 17 -10 -11 -12 12 18 14 15 24 -18 19 -20 -21 25 -23 -24 -25 -26 -27
leaf_value=0.11426762661383454 -0.013458682066982777 0.1021367609577014 -0.14335524390028534 0.095100738336709054 -0.1194276092476248 0.10121436238116469 -0.0010794910822341426 0 0.052589624266318941 -0.038086620995680505 -0.032617933957548174 -0.11669715186305034 0.11333606825087222 0.082001049015155841 0.02952744794805626 0.041034126468173095 -0.13283670605942396 0 0.051082679210347821 0.0092303760557689019 -0.014166285228008883 0.13305324711031383 -0.11879195405461566 0.082439155719724405 0.085964006883421179 -0.092412132662033519
leaf_weight=190.32317711412907 2606.3548257052898 207.67879739403725 524.06240222603083 308.04872961342335 341.38150665163994 141.58043149113655 555.9421081840992 10.222032576799393 333.92658416926861 12.90374383330345 16.980718001723289 24.04632905125618 88.548221260309219 201.08284737169743 35.520427882671356 58.381713718175888 40.719065651297569 11.297683924436567 183.32553142309189 8.3637907654046995 11.92860923707485 117.13055010139942 23.391780853271484 11.780045405030251 61.03164367377758 27.507809534668922
leaf_count=870 11567 1091 2593 1747 2019 626 2459 48 1601 55 74 109 396 878 160 254 188 51 829 39 52 529 103 55 280 128
internal_value=0 -0.00888282 -0.0189513 -0.00355558 -0.0199352 -0.00725274 0.0379103 0.0684098 0.0189677 0.0883418 0.0791709 0.0828962 0.0559173 0.0704566 0.0519761 0.0183128 -0.0571433 -0.0134863 0.0742643 -0.0484108 -0.0626627 0.104853 0.0850767 0.0611709 0.0690574 -0.0795442
internal_weight=0 5428.61 4824.2 4300.14 3089.32 2747.94 1210.82 724.846 889.869 320.952 643.746 626.766 295.92 604.414 396.736 195.653 76.2395 81.1 271.874 59.0979 50.7341 330.846 213.715 22.0021 119.413 39.4364
internal_count=28801 25518 22667 20074 14212 12193 5862 3283 4060 1802 2910 2836 1334 2851 1760 882 348 373 1225 270 231 1502 973 103 534 180
is_linear=0
shrinkage=0.094472


Tree=13
num_leaves=27
num_cat=0
split_feature=20 126 127 127 0 0 20 67 0 3 3 21 126 21 1 126 126 126 126 126 126 32 7 120 0 7
split_gain=382.828 319.745 262.981 534.941 220.973 205.802 121.169 86.5774 81.1907 68.5256 57.6049 52.6921 48.1588 49.8217 103.209 39.2668 39.3053 35.4223 54.7606 80.9123 31.5761 30.4446 26.5271 23.6036 20.5447 18.4684
threshold=-0.49900560566147939 0.00020990558165880153 0.16082239058305062 0.068447151252661279 -0.47846312784324013 -0.63263013531154233 -0.84694831145932048 1.0000000180025095e-35 -0.6507206064825547 -0.56606886402483547 -0.35789386442886434 1.0000000180025095e-35 0.001300883355509452 1.0000000180025095e-35 -0.57664773877483355 0.00012581639938369439 0.061823134614036872 0.0073810958390288254 0.068898147788701777 0.014722387192066333 4.2023119839014811e-05 1.0000000180025095e-35 -0.21091983793481345 1.0000000180025095e-35 -0.58378464414316988 0.26761814681239099
decision_type=2 2 2 2 2 2 2 2 2 2 2 2 2 2 2 2 2 2 2 2 2 2 2 2 2 2
left_child=5 8 3 4 9 6 -1 -6 20 -3 12 22 -7 24 -15 -13 -17 -4 19 -19 -2 23 -8 25 -14 -10
right_child=1 2 17 -5 7 10 11 -9 21 -11 -12 15 13 14 -16 16 -18 18 -20 -21 -22 -23 -24 -25 -26 -27
leaf_value=0.069817534130832137 0.068207098522112722 -0.059384854477199767 0.08067407385604787 -0.13257840793943576 0.010132537387472908 0.092249041666709525 0.062030645853460194 -0.080282869409789723 0.090799315808469463 -0.0086460196990010615 0.10546149886000583 0.046554203838136118 0.015042726819262947 0.032167587960163717 -0.11655645276556555 -0.050484692760773463 0.067054044127737134 0.034909882653764254 0.064187799449137703 -0.12581296774381415 -0.049168726012309739 -0.045669298050072325 -0.018915574071321446 0.0032490477368058161 0.085043075431379192 0
leaf_weight=169.56522099673748 20.192549034953117 1007.1206609904766 168.53996317088604 417.29433840513229 1535.6396146565676 190.09698878228664 85.114172741770744 94.602821514010429 337.17643535137177 330.30362789332867 254.39837127923965 40.530825212597847 64.10882405936718 268.40171864628792 43.04875286668539 405.49831736087799 20.262723356485367 65.073357000946999 117.75693173706532 39.320657312870026 78.068264156579971 12.411184400320051 49.641570314764977 42.614611938595772 169.09211041033268 26.076017782092094
leaf_count=946 84 4602 747 2215 7086 1001 404 440 1517 1544 1435 175 334 1273 242 1768 85 291 534 188 343 53 222 193 964 115
internal_value=0 -0.0149379 -0.0245393 -0.033068 -0.0187546 0.0373125 0.000307948 0.00445614 0.0542232 -0.0471458 0.0657012 -0.0193344 0.0508558 0.0351026 0.00901404 -0.0345757 -0.0434436 0.0480786 0.0207489 -0.0265956 -0.0200084 0.072333 0.0307383 0.0771867 0.0677567 0.0849427
internal_weight=0 4292.19 3775.65 3384.96 2967.67 1759.76 770.613 1630.24 516.539 1337.42 989.147 601.048 734.748 544.651 311.45 466.292 425.761 390.691 222.151 104.394 98.2608 418.278 134.756 405.867 233.201 363.252
internal_count=28801 19952 17647 15887 13672 8849 3600 7526 2305 6146 5249 2654 3814 2813 1515 2028 1853 1760 1013 479 427 1878 626 1825 1298 1632
is_linear=0
shrinkage=0.094472


Tree=14
num_leaves=27
num_cat=0
split_feature=20 126 126 126 126 126 7 126 20 126 126 126 126 126 126 126 126 126 2 126 126 55 64 2 2 7
split_gain=331.184 300.399 229.492 380.228 217.242 92.6363 91.2047 89.1039 63.4053 56.8252 99.2208 49.0613 383.019 41.2581 159.178 31.9976 41.8267 47.2602 37.5372 22.9971 152.836 18.3724 18.0297 14.8225 25.3141 7.24944
threshold=-0.67297695856039985 0.00083903944912993016 0.061823134614036872 0.015099535816924718 0.01501320919637259 8.404021271936548e-05 -0.21178047413014822 0.00012576070307267122 -0.84694831145932048 0.00012581639938369439 0.00016762087422305151 0.033279417011313463 0.032906800878777322 0.061900411152577751 0.068898147788701777 0.0003775836969499072 0.061823134614036872 0.034565351628892148 0.4870727219021681 8.3784045766276304e-05 4.2023119839014811e-05 1.0000000180025095e-35 1.0000000180025095e-35 -0.37757086017332103 0.053787852738362792 1.8792338305313996
decision_type=2 2 2 2 2 2 2 2 2 2 2 2 2 2 2 2 2 2 2 2 2 2 2 2 2 2
left_child=8 5 3 4 6 19 -3 -7 22 -9 -11 12 -5 23 -15 -10 17 18 -17 20 21 -2 25 -4 -25 -1
right_child=1 2 13 11 -6 7 -8 9 15 10 -12 -13 -14 14 -16 16 -18 -19 -20 -21 -22 -23 -24 24 -26 -27
leaf_value=0.090475317824840279 0.096349453178155256 -0.013842521603767135 0.11203856113889378 -0.13363509805573101 0.12632838918435235 -0.12323730586044454 -0.064036669815186284 0.098101464009015232 0.088777704277858041 -0.12773884437214258 0.020707632578460283 -0.1319453071819213 0.098171905967712053 -0.11666895502476611 0.065964254347752369 0.0041151681564661714 0.087616711470991412 -0.12461620530048949 0.080798887124472751 0.11339507483561335 -0.12014834320790493 -0.00030670064485842005 -0.0063589037015498355 -0.0093262162560826586 0.086929895057148779 0
leaf_weight=326.7735855281353 159.73721082508564 2323.2107383608818 83.019021660089493 225.66459085047245 86.161222711205482 33.743368297815323 376.80109771341085 73.598988324403763 73.81050930917263 36.083366885781288 849.1776078492403 266.30733232200146 81.63044585287571 52.117683827877045 152.30962044000626 360.30552493035793 69.370469495654106 15.982144996523855 64.27981224656105 102.80121637880802 32.197450339794159 13.419590994715689 12.558249428868292 36.730453193187714 44.509858205914497 7.3493401557207099
leaf_count=2025 730 10878 373 1169 383 157 1812 329 379 161 3871 1421 381 286 723 1722 392 72 382 467 148 61 63 162 213 41
internal_value=0 -0.00929694 -0.0229698 -0.0307946 -0.0161622 0.0296165 -0.0210687 0.015029 0.0518922 0.0208825 0.0135661 -0.100534 -0.0705208 0.046991 0.0161944 0.0316259 0.0219295 0.00998297 0.0172794 0.074605 0.05134 0.0875817 0.0841748 0.081881 0.0425754 0.0884219
internal_weight=0 5029.22 3728.46 3359.78 2786.17 1300.76 2700.01 992.603 930.43 958.86 885.261 573.602 307.295 368.687 204.427 583.748 509.938 440.567 424.585 308.155 205.354 173.157 346.681 164.259 81.2403 334.123
internal_count=28801 23725 17801 16044 13073 5924 12690 4518 5076 4361 4032 2971 1550 1757 1009 2947 2568 2176 2104 1406 939 791 2129 748 375 2066
is_linear=0
shrinkage=0.094472


Tree=15
num_leaves=27
num_cat=0
split_feature=121 127 127 120 125 127 127 120 127 39 0 86 42 20 126 126 126 126 15 67 127 0 0 127 14 125
split_gain=408.807 433.982 676.47 299.743 239.881 257.733 64.9275 225.047 71.3339 64.5729 34.5035 27.6256 26.1262 24.8289 33.0985 35.4246 65.1669 24.5387 23.9794 23.1057 25.1575 8.41498 7.53299 5.88451 3.51789 2.62295
threshold=1.0000000180025095e-35 0.16082239058305062 0.068447151252661279 1.0000000180025095e-35 0.11565687819780808 0.068441745374262383 0.040128767118413657 1.0000000180025095e-35 0.0036906125864438733 1.0000000180025095e-35 -0.63595675112026973 1.0000000180025095e-35 1.0000000180025095e-35 -0.49900560566147939 0.0073810958390288254 0.068898147788701777 0.014722387192066333 8.404021271936548e-05 1.5580428244557603 1.0000000180025095e-35 0.012085350395254489 -0.33908589010439033 -0.61395407707693728 0.0015948252668438287 3.4929065394412686 0.050909592024723671
decision_type=2 2 2 2 2 2 2 2 2 2 2 2 2 2 2 2 2 2 2 2 2 2 2 2 2 2
left_child=6 2 3 4 5 -2 7 9 17 10 12 -12 -1 25 24 16 -16 22 -6 20 -11 -17 -9 -19 -15 -3
right_child=1 13 -4 -5 18 -7 -8 8 -10 19 11 -13 -14 14 15 21 -18 23 -20 -21 -22 -23 -24 -25 -26 -27
leaf_value=0.040697233365334713 -0.018705296006115008 0.097708656302076854 -0.13215634680450949 -0.12899959919725187 0.10031175196097146 0.086540033644275011 0.10836561933515337 0 -0.13942203040917309 -0.0084771738624853498 0.079505575666283787 -0.010723650959443295 -0.067237110628148397 0.079956569100471581 0.033831580723145981 0.014568881293912626 -0.11382624362373432 -0.019654763915002874 0 -0.10163219821762591 0.067623758444655027 0.07646578795391705 0.083470981306398878 -0.096395399998378734 0 0.027954519317847256
leaf_weight=274.66502495110035 2816.7192066907883 167.59920467436314 458.95427219569683 174.98025695234537 197.13693806529045 217.84306459873915 129.0225822031498 10.335553929209711 61.352475345134735 128.06235727667809 616.60113580524921 24.992436148226261 14.636907756328581 162.0512501001358 64.908627867698669 49.041744157671928 36.069245517253876 65.060150533914566 22.457435041666031 11.716967880725859 46.837648183107376 65.281581446528435 18.102844528853893 11.218798398971556 8.7697156667709333 22.574496291577816
leaf_count=1282 13467 982 2601 932 947 1084 643 48 282 581 3057 116 62 732 291 214 188 297 103 52 217 320 89 50 39 125
internal_value=0 -0.0137306 -0.0251374 -0.0105375 -0.00386783 -0.0109114 0.0444797 0.0373926 -0.0629469 0.0527907 0.0629072 0.0755096 0.0331138 0.06225 0.0458335 0.0186829 -0.0196844 -0.0107575 0.090056 0.000550661 0.011917 0.0541368 0.0538226 -0.0402159 0.0767969 0.091873
internal_weight=0 4464.39 3888.09 3429.14 3254.16 3034.56 1412.6 1283.58 166.07 1117.51 930.896 641.594 289.302 576.296 386.122 215.301 100.978 104.717 219.594 186.617 174.9 114.323 28.4384 76.2789 170.821 190.174
internal_count=28801 22025 19134 16533 15601 14551 6776 6133 766 5367 4517 3173 1344 2891 1784 1013 479 484 1050 850 798 534 137 347 771 1107
is_linear=0
shrinkage=0.094472


Tree=16
num_leaves=25
num_cat=0
split_feature=121 120 125 125 125 125 125 0 20 20 20 120 42 15 23 120 0 0 66 108 0 0 3 0
split_gain=340.451 301.308 225.649 284.6 470.888 349.118 57.9689 66.3262 60.8131 40.5859 26.2827 23.1901 22.288 17.8228 13.3201 12.8497 10.0844 9.93929 7.18519 6.2804 5.48739 5.36767 2.12418 1.10582
threshold=1.0000000180025095e-35 1.0000000180025095e-35 0.11565687819780808 0.071231224772482074 0.071205814029582634 0.046468112252697244 0.0016777364903364934 -0.48244047774322479 -0.67297695856039985 1.0000000180025095e-35 0.71879386463096429 1.0000000180025095e-35 1.0000000180025095e-35 1.3777623970816515 1.0000000180025095e-35 1.0000000180025095e-35 -0.38004842733469441 1.7507123636695712 1.0000000180025095e-35 1.0000000180025095e-35 -0.58968774032246374 -0.66942263980791739 2.5820011185221983 1.1755976511430528
decision_type=2 2 2 2 2 2 2 2 2 2 2 2 2 2 2 2 2 2 2 2 2 2 2 2
left_child=6 2 3 4 5 -2 18 8 14 19 15 12 -10 22 21 -11 -12 23 -1 -9 -13 -8 -4 -15
right_child=1 -3 13 -5 -6 -7 7 9 11 10 16 20 -14 17 -16 -17 -18 -19 -20 -21 -22 -23 -24 -25
leaf_value=0.085256044800212344 -0.0084837747930223955 -0.12534358364218751 0.08614608182184795 -0.12956816731582618 0.12908151090535253 -0.14101958578882556 0.014820336954533962 0.089838696558630471 0.011321533264742235 0.017592172024979046 0 -0.057103606779488177 -0.078359201990175653 0 -0.031793081725704407 -0.043831950777122333 0.069652108818537686 0.059232255710588731 0 0 -0.0019510518243200155 0.071179973237928781 0 -0.042857407594642495
leaf_weight=243.74424900859594 3363.1509901657701 196.44278801977634 228.85313184559345 172.92424834519625 206.88058499246836 182.0926337018609 35.422745376825333 216.75108779966831 308.23212857544422 117.36888873577118 17.942209467291832 81.477813169360161 20.778363287448883 11.288914203643801 7.2943106740713111 34.157720118761063 114.94786298274994 13.942438855767248 9.8274426236748678 11.112158142030237 33.212093695998192 135.05343014001846 8.252184256911276 10.552307799458502
leaf_count=1290 16690 1131 1150 972 955 912 164 1147 1343 544 81 383 87 52 33 153 554 70 50 56 145 746 42 51
internal_value=0 -0.0126175 -0.00711345 -0.0129864 -0.00735098 -0.0155852 0.0409693 0.0311566 0.00971811 0.0562457 0.0300025 -0.00857318 0.00359877 0.0749102 0.0556768 0.00092984 0.0597877 0.00367008 0.0821333 0.0862972 -0.0442316 0.0618692 0.0842077 -0.0269875
internal_weight=0 4394.38 4197.94 3925.05 3752.12 3545.24 1387.32 1133.75 621.471 512.28 284.417 443.7 329.01 272.889 177.77 151.527 132.89 35.7837 253.572 227.863 114.69 170.476 237.105 21.8412
internal_count=28801 22025 20894 19529 18557 17602 6776 5436 2901 2535 1332 1958 1430 1365 943 697 635 173 1340 1203 528 910 1192 103
is_linear=0
shrinkage=0.094472


Tree=17
num_leaves=27
num_cat=0
split_feature=125 125 125 125 125 121 0 20 2 7 20 9 0 120 120 3 125 0 0 55 2 120 120 0 16 0
split_gain=319.966 292.582 325.321 450.864 367.34 237.447 100.142 41.9185 54.1684 54.1125 37.2586 12.0857 11.9253 11.1366 9.88506 8.91563 7.83232 16.383 7.36803 7.17101 6.4615 5.95309 5.46441 5.209 4.15233 3.5515
threshold=0.0020976869941272975 0.11565687819780808 0.071231224772482074 0.071205814029582634 0.046468112252697244 1.0000000180025095e-35 -0.65244077471866513 -0.49900560566147939 -0.37890714536799852 -0.1871568246767181 -0.67297695856039985 -0.066812668722713464 -0.67375284319052786 1.0000000180025095e-35 1.0000000180025095e-35 -0.24752274756446643 0.00054603594796062953 -0.66942549704207299 -0.67236816053726356 1.0000000180025095e-35 -0.23468832584165808 1.0000000180025095e-35 1.0000000180025095e-35 -0.48657411106037357 -0.064831575162363597 -0.49420914926985743
decision_type=2 2 2 2 2 2 2 2 2 2 2 2 2 2 2 2 2 2 2 2 2 2 2 2 2 2
left_child=6 2 3 4 5 -2 10 -8 9 14 12 21 -1 15 -9 -10 18 -18 -12 22 -14 -5 24 -24 -3 -11
right_child=1 19 -4 11 -6 -7 7 8 13 25 16 -13 20 -15 -16 -17 17 -19 -20 -21 -22 -23 23 -25 -26 -27
leaf_value=-0.02916733000472204 0.031652791026273025 0.080173080726392953 -0.12851773890459214 0.12175443083326988 -0.13774581967848024 -0.023923492354265118 0.10432381989360454 0.10638139759415895 0.0022694057049514561 0.026888518433479485 -0.048151032256879896 0 0.072538620926931335 -0.051131297200949555 0.0048095031198667811 0.060170529030706257 0.012483879575071735 -0.067132983521563785 0.027457812924723528 0 0 0.0081046228603512717 -0.014107681402493667 0.05440754662753558 0.009500263345532188 -0.018103177193915073
leaf_weight=7.8617065697908393 887.34371151030064 309.88082360476255 212.71438421308994 220.17868116497993 210.21344874054193 2923.3641815781593 233.44570537656546 184.28888007998466 119.50134245306253 17.292081475257874 11.340011641383169 11.115664213895796 58.147983990609646 18.159295588731766 15.438749104738234 28.16062381118536 22.820522353053093 74.40733578056097 28.837264955043793 13.01309774070978 10.896741494536398 10.293131917715071 13.415956526994707 9.7090959995985013 18.303574934601784 40.0732102394104
leaf_count=42 4252 1624 1243 1063 1100 14612 1473 857 553 76 48 55 323 95 77 150 101 340 126 73 57 52 62 55 93 199
internal_value=0 -0.00926022 -0.0159668 -0.0101207 -0.0177705 -0.0108832 0.0527679 0.0709512 0.0507439 0.0775341 -0.00209453 0.113554 0.0471526 0.00642443 0.100199 0.0169183 -0.0323331 -0.0461727 0 0.0713562 0.0610298 0.118143 0.0738682 0.0104364 0.077272 0
internal_weight=0 4839.55 4475.22 4262.51 4020.92 3810.71 870.671 656.36 422.914 257.093 214.312 241.587 76.9064 165.821 199.728 147.662 137.405 97.2279 40.1773 364.323 69.0447 230.472 351.309 23.1251 328.184 57.3653
internal_count=28801 24284 22377 21134 19964 18864 4517 3480 2007 1209 1037 1170 422 798 934 703 615 441 174 1907 380 1115 1834 117 1717 275
is_linear=0
shrinkage=0.094472


Tree=18
num_leaves=27
num_cat=0
split_feature=125 126 126 126 121 126 1 126 0 126 126 126 125 125 20 2 7 126 126 20 1 32 126 125 125 0
split_gain=271.201 277.872 210.078 276.781 256.558 199.718 132.039 95.8585 86.6785 70.1954 66.2925 55.1936 55.1205 84.9929 40.0353 46.1808 46.738 35.163 126.006 31.617 21.6468 18.7342 18.4965 16.379 13.4372 12.4406
threshold=0.0020976869941272975 0.00079690143344140335 0.061823134614036872 0.015099535816924718 1.0000000180025095e-35 0.011691263543521565 1.4817183489063879 0.032906800878777322 -0.65244077471866513 8.404021271936548e-05 0.00012576070307267122 0.01501320919637259 0.071205814029582634 0.046468112252697244 -0.49900560566147939 -0.37890714536799852 -0.1871568246767181 0.061900411152577751 0.068898147788701777 -0.84694831145932048 1.4817183489063879 1.0000000180025095e-35 0.0005873320918318095 0.071231224772482074 0.00054603594796062953 -0.67236816053726356
decision_type=2 2 2 2 2 2 2 2 2 2 2 2 2 2 2 2 2 2 2 2 2 2 2 2 2 2
left_child=8 9 3 5 7 6 -3 -5 19 21 -11 -7 13 -12 -10 16 -16 -4 -19 -1 22 -2 -17 -14 25 -21
right_child=1 2 17 4 -6 11 -8 -9 14 10 12 -13 23 -15 15 20 -18 18 -20 24 -22 -23 -24 -25 -26 -27
leaf_value=0.074136521790654455 0.076039403723643109 -0.034685175723263371 0.080096227979796125 -0.10137480820006173 -0.12699395412502384 0.024644486595721143 0.042748573966439711 0.097707395342431405 0.1001528644249947 -0.11171680400875851 0.018293248366838738 0.11346022799864737 0.10390484270380788 -0.11730554937457341 0.093563352499861238 0.055679574045174429 0 -0.11003805656616342 0.059609605376446023 -0.044828627016151798 0.068307130662865784 -0.034746696852636406 -0.028415360625535051 0.037760485089853468 -0.036909130135643765 0.042412876131436072
leaf_weight=33.142251580953598 279.59873642027378 2155.2430580928922 155.11490280926228 23.720219388604164 399.17866057157516 306.06007198244333 208.31039054691792 70.548872224986553 221.04578970372677 27.879130557179451 645.89300190657377 79.442642755806446 73.213997378945351 37.985632583498955 194.6954602226615 22.367732346057892 57.338102228939533 45.414884932339191 154.60164612531662 13.266804486513136 33.74110721051693 7.7150501310825339 108.94065371900797 112.08595181256533 122.98790176957846 42.261837214231491
leaf_count=232 1415 10642 782 120 2425 1541 1106 372 1473 141 3041 379 369 193 934 101 275 288 813 57 188 35 509 622 561 187
internal_value=0 -0.00847967 -0.0215867 -0.029206 -0.0940645 -0.0172935 -0.0276592 0.0419582 0.0492651 0.031019 0.0173746 0.0450402 0.0225331 0.00945177 0.0665212 0.0469355 0.0720351 0.046588 0.0177734 -0.00190336 0.00588915 0.0715181 -0.0103805 0.0676558 -0.0193642 0.0149083
internal_weight=0 4782.01 3597.64 3242.5 493.448 2749.06 2363.55 94.2691 849.788 1184.37 897.058 385.503 869.179 683.879 638.129 417.083 252.034 355.131 200.017 211.659 165.049 287.314 131.308 185.3 178.517 55.5286
internal_count=28801 24284 18468 16585 2917 13668 11748 492 4517 5816 4366 1920 4225 3234 3480 2007 1209 1883 1101 1037 798 1450 610 991 805 244
is_linear=0
shrinkage=0.094472


Tree=19
num_leaves=27
num_cat=0
split_feature=121 127 127 120 39 127 39 20 120 127 127 7 7 20 55 20 125 48 125 15 20 127 127 127 125 125
split_gain=234.341 334.006 554.918 221.131 219.433 151.21 52.3894 49.1958 42.2729 153.221 36.8517 30.7911 26.9159 19.4725 17.6645 17.1856 16.8435 13.6906 10.9986 10.058 11.3259 9.62736 12.7338 7.4536 3.35556 3.85854
threshold=1.0000000180025095e-35 0.16082239058305062 0.068447151252661279 1.0000000180025095e-35 1.0000000180025095e-35 0.068441745374262383 1.0000000180025095e-35 -0.67297695856039985 1.0000000180025095e-35 0.040128767118413657 0.0036906125864438733 -0.21138538788658526 0.41776343814472078 -0.49900560566147939 1.0000000180025095e-35 1.0667365704288054 0.0036924817390163907 1.0000000180025095e-35 0.11565687819780808 2.6965243171206139 -0.15106289986363838 0.0013091262247335437 0.012085350395254489 0.0012637270752770115 0.050909592024723671 0.11565687819780808
decision_type=2 2 2 2 2 2 2 2 2 2 2 2 2 2 2 2 2 2 2 2 2 2 2 2 2 2
left_child=6 2 3 4 5 -2 7 14 11 10 -10 17 -13 24 -1 19 23 -9 21 20 -15 -18 -23 -8 -3 -26
right_child=1 13 -4 -5 -6 -7 16 8 9 -11 -12 12 -14 15 -16 -17 18 -19 -20 -21 -22 22 -24 -25 25 -27
leaf_value=0.086448408181681841 -0.003374417545909334 0.091668589745776324 -0.12505366691617109 -0.1186342991743608 -0.12826501649309799 0.077027035045300771 -0.0056624846801211805 0.055369824995568397 -0.021539995930255903 0.088245308353878962 -0.12624308946686505 -0.038850616055653785 0.0474564677934863 0.0490984345978836 -0.0013454642437446859 0.098680609485110662 0.012231119746073273 -0.021726634388779257 0.036430356105194822 0.085373993402215603 0.0087134566733509684 -0.063985257388310818 0 0.065890805339497635 -0.0080362109281893433 0.048766138904206412
leaf_weight=233.7577129304409 2793.6903790533543 154.97052690386772 400.72267732024193 147.6725527048111 113.1406459659338 219.57434232532978 10.012950368225573 528.09289172291756 87.565746434032917 90.985619328916073 50.778732888400555 66.33779065310955 52.569993078708649 110.55824573338032 15.604102373123167 43.904894411563873 21.844710819423199 13.358997806906698 14.447858348488806 29.31222240626812 185.24882989376783 83.036552503705025 33.858799651265144 26.085582107305527 7.6645119786262521 12.827914655208588
leaf_count=1526 13846 982 2601 932 593 1162 50 2550 405 459 252 296 249 529 86 224 103 62 75 151 880 366 162 135 42 83
internal_value=0 -0.0105943 -0.0208983 -0.0078706 -0.00234373 0.00253097 0.0348213 0.0424857 0.0312248 -0.00259919 -0.0653592 0.0432972 0 0.0579481 0.0799904 0.0429107 -0.00980875 0.0527654 -0.0246785 0.0329744 0.025353 -0.0341104 -0.045139 0.041551 0.0857118 0.0201445
internal_weight=0 4219.29 3674.8 3274.08 3126.41 3013.26 1328.34 1139.05 889.69 229.33 138.344 660.36 118.908 544.487 249.362 369.024 189.286 541.452 153.188 325.119 295.807 138.74 116.895 36.0985 175.463 20.4924
internal_count=28801 22025 19134 16533 15601 15008 6776 5885 4273 1116 657 3157 545 2891 1612 1784 891 2612 706 1560 1409 631 528 185 1107 125
is_linear=0
shrinkage=0.094472


Tree=20
num_leaves=27
num_cat=0
split_feature=1 1 126 125 125 125 21 14 22 14 126 126 39 15 121 3 125 1 15 126 126 126 55 126 15 126
split_gain=219.275 504.74 173.676 123.576 139.918 155.575 115.141 81.7971 63.6278 52.6664 33.8048 69.5873 31.2166 24.1432 21.3428 24.9032 19.9717 12.3843 21.2826 9.62563 102.204 21.4255 9.43863 8.60477 6.22675 2.75798
threshold=0.45695658729104821 -0.57664773877483355 0.00012581639938369439 0.0014260256394878974 0.11565687819780808 0.071231224772482074 1.0000000180025095e-35 -0.36114408826644867 1.0000000180025095e-35 0.43191670662738318 0.015099535816924718 0.061823134614036872 1.0000000180025095e-35 1.5070874527903004 1.0000000180025095e-35 -0.56606886402483547 0.0019303227923163939 0.45818431521284736 0.33171952448817826 4.2023119839014811e-05 8.3784045766276304e-05 8.404021271936548e-05 1.0000000180025095e-35 0.0009229496623642733 0.7658400092702341 0.00096339448718691712
decision_type=2 2 2 2 2 2 2 2 2 2 2 2 2 2 2 2 2 2 2 2 2 2 2 2 2 2
left_child=1 2 19 14 5 -5 7 8 10 17 13 -12 16 -2 25 -16 -11 23 -19 22 -21 -22 -1 -9 -6 -4
right_child=6 -3 3 4 24 -7 -8 9 -10 12 11 -13 -14 -15 15 -17 -18 18 -20 20 21 -23 -24 -25 -26 -27
leaf_value=0.092218420506359589 0.071177983092729782 -0.11382075092897974 0.032360619041480132 -0.014275032567403569 0.065585674357305057 -0.12208503595171269 -0.10702856013918313 0.049490465942266443 -0.10286398191331796 0.081531519259131213 -0.057821199450110237 0.065014865391397017 -0.059194005885303089 0.0061751222343201942 0.0061578420236404066 0.076792116243242614 0.022462662818345566 -0.076214876763624054 0.01201977355823103 -0.11233739924337796 0.10700199567326717 0.030322076984738502 0 -0.019281476616356 0 0.092576885481593721
leaf_weight=131.37621013820171 660.23171900957823 382.51033727452159 34.457539543509483 2540.7133011817932 186.18668066710234 120.77424734085798 46.180030558258295 14.8118884190917 16.505011916160583 65.429116107523441 62.370113037526608 95.359392240643501 27.477800205349922 66.443055905401707 179.6359631344676 59.042558282613754 313.43369902670383 81.068746514618397 25.159763753414154 25.068425871431828 83.900863341987133 80.821520261466503 8.4252342656254751 65.430070199072361 12.235567897558211 79.772661499679089
leaf_count=663 3626 2893 180 12163 962 734 302 77 85 426 382 639 133 332 870 284 1686 430 140 121 422 398 42 312 55 444
internal_value=0 -0.0115649 -0.000280131 -0.00709651 -0.0137001 -0.019522 0.0304337 0.0352589 0.0531547 0.00736106 0.0570174 0.0144652 0.026709 0.0656985 0.0450251 0.0261351 0.0344355 -0.0329324 -0.0533641 0.0643391 0.0447753 0.0732612 0.0862169 -0.000980423 0.0614131 0.0790912
internal_weight=0 3924.92 3542.41 3212.82 2859.91 2661.49 1539.9 1493.72 900.909 592.811 884.404 157.73 406.341 726.675 352.909 238.679 378.863 186.47 106.229 329.592 189.791 164.722 139.801 80.242 198.422 114.23
internal_count=28801 20231 17338 15692 13914 12897 8570 8268 5064 3204 4979 1021 2245 3958 1778 1154 2112 959 570 1646 941 820 705 389 1017 624
is_linear=0
shrinkage=0.094472


Tree=21
num_leaves=27
num_cat=0
split_feature=20 126 1 0 20 20 0 14 126 126 0 126 126 126 67 64 99 20 108 2 126 0 0 126 126 1
split_gain=194.117 160.985 150.45 147.444 123.388 86.6045 83.0842 70.3923 68.6273 123.492 49.3223 52.5817 40.5612 39.6009 30.5201 30.0885 29.3022 28.6897 23.6196 22.0535 24.4967 19.7364 19.5705 17.6985 24.314 15.3953
threshold=-0.49900560566147939 0.0012582079361394449 1.4817183489063879 -0.46015996052145997 1.0667365704288054 -0.84694831145932048 -0.53455368058489694 -0.34543834188011263 0.061823134614036872 0.015099535816924718 -0.66880548486934166 0.00067145538771229256 0.061823134614036872 8.404021271936548e-05 1.0000000180025095e-35 1.0000000180025095e-35 1.0000000180025095e-35 -0.15106289986363838 1.0000000180025095e-35 -0.37890714536799852 0.0036906874356013599 -0.66350233219590071 0.46650759494403127 0.015099535816924718 0.061823134614036872 1.4998013160058898
decision_type=2 2 2 2 2 2 2 2 2 2 2 2 2 2 2 2 2 2 2 2 2 2 2 2 2 2
left_child=3 6 4 5 8 -1 13 14 9 -3 19 21 -13 -2 15 -8 23 -9 -6 -7 -21 -12 -10 -5 -25 -4
right_child=1 2 25 16 18 10 7 17 22 -11 11 12 -14 -15 -16 -17 -18 -19 -20 20 -22 -23 -24 24 -26 -27
leaf_value=0.063619292321985127 0.039338113380862273 -0.033754789310775163 0.063054834611273203 0.096477363970956603 0.036505470811049143 0.022677114135134322 0.067445987836802834 0.057497370088862479 -0.00052142082911751052 -0.096672319230499681 0 -0.011203454196223791 0.070273180923288076 -0.025586785835538986 -0.021004090160078329 -0.036699588533906313 -0.047675377781520478 -0.02183230844168604 -0.075404288104818584 -0.080823000663583874 -4.5252442906366178e-05 0.079459987318727679 0.076514674745678718 -0.024891633288858305 0.067656985751672963 0.015212110193524317
leaf_weight=218.80421771854162 96.734991200268269 1498.4850125834346 133.03561966121197 275.82634281367064 238.93947709351778 29.791040658950806 458.67284934222698 44.609168447554111 171.20714408159256 350.05958824232221 32.745846904814243 530.0063352547586 54.674790225923061 415.45867960900068 34.873159766197205 19.22819297015667 9.8085453510284406 194.4452557861805 11.315095663070677 112.34265720844269 56.255216330289841 106.63621930032969 28.230909332633018 27.11877204105258 81.347810871899128 148.0169145539403
leaf_count=1545 459 7602 755 1846 1176 144 2301 226 856 2341 155 2656 299 2001 174 98 48 979 51 512 279 570 138 173 622 795
internal_value=0 -0.0110663 -0.0246256 0.0286093 -0.032678 0.0109764 0.0163757 0.0363509 -0.0403823 -0.0460788 -0.00153745 0.00965364 -0.00251505 -0.0125021 0.0559526 0.0623099 0.0781013 -0.00492022 0.0288061 -0.0428225 -0.0563116 0.0606296 0.0109124 0.0826613 0.0420666 0.0396123
internal_weight=0 3843.31 2579.29 1535.36 2298.24 1141.26 1264.02 751.829 2047.98 1848.54 922.452 724.063 584.681 512.194 512.774 477.901 394.101 239.054 250.255 198.389 168.598 139.382 199.438 384.293 108.467 281.053
internal_count=28801 19952 13714 8849 12164 6160 6238 3778 10937 9943 4615 3680 2955 2460 2573 2399 2689 1205 1227 935 791 725 994 2641 795 1550
is_linear=0
shrinkage=0.094472


Tree=22
num_leaves=27
num_cat=0
split_feature=125 125 125 125 125 125 0 125 7 120 55 9 15 121 21 55 120 0 121 0 120 7 0 125 1 0
split_gain=188.782 195.26 253.387 341.508 295.988 198.334 69.0034 23.1331 14.7961 19.0086 12.2489 11.1482 9.86734 9.14715 8.80695 8.48568 6.60113 6.56122 6.44501 6.15097 6.0675 5.86797 5.85871 6.34447 4.01339 3.71561
threshold=0.0020976869941272975 0.11565687819780808 0.071231224772482074 0.071205814029582634 0.046468112252697244 0.046466292551832641 -0.65244077471866513 0.00042013018741683602 1.8792338305313996 1.0000000180025095e-35 1.0000000180025095e-35 -0.066812668722713464 1.3777623970816515 1.0000000180025095e-35 1.0000000180025095e-35 1.0000000180025095e-35 1.0000000180025095e-35 1.7507123636695712 1.0000000180025095e-35 -0.66464893427357985 1.0000000180025095e-35 1.1170788568368633 -0.67276720228367981 0.00042013018741683602 0.9519636229214844 -0.48657411106037357
decision_type=2 2 2 2 2 2 2 2 2 2 2 2 2 2 2 2 2 2 2 2 2 2 2 2 2 2
left_child=6 2 3 4 5 -2 13 21 9 10 -9 20 15 19 -15 16 -3 -14 -11 -1 -5 -8 -16 -24 -10 -18
right_child=1 12 -4 11 -6 -7 7 8 24 18 -12 -13 17 14 22 -17 25 -19 -20 -21 -22 -23 23 -25 -26 -27
leaf_value=0.044927425208452228 -0.013037705351757129 0.07508693132489562 -0.12079872669293641 0.11287726452955796 -0.12926989845574904 0.096487886913586923 0.097366645111083047 0.059972271765898547 -0.032633514374249002 0.0087799656136937076 -0.013612594123881981 0 -0.016429664443726913 0.018228921803602093 -0.079583521378263994 0 -0.014953437088605472 0.051061114334412398 -0.063281487997292177 -0.0032880258885775379 0.0015968444490235712 0.012913092968203503 0.021031015770407474 -0.030708169720736804 0.025544092335863373 0.046810353790978067
leaf_weight=38.750131137669086 3454.1960930787027 262.3617961704731 179.78717278689146 201.6711313650012 184.99355228245258 147.99239604920149 149.32997796684504 341.80774572491646 23.570883691310886 22.571128316223621 13.160950422286986 10.581517994403837 23.27610819041729 30.645662389695644 17.036223314702511 11.492165848612784 12.905255697667601 14.385933883488176 9.3055052831769007 29.276421755552292 9.6987940073013288 17.682845026254654 18.766585558652878 67.353271514177322 6.8694842979311934 7.5557165667414656
leaf_count=206 18110 1528 1243 1063 1100 754 929 2016 131 135 65 55 117 164 82 70 62 81 58 158 52 105 88 339 41 49
internal_value=0 -0.00715478 -0.0127635 -0.00768492 -0.0144831 -0.00831604 0.0428416 0.0591827 0.0448585 0.0499529 0.0563217 0.104556 0.0618271 -0.00349592 -0.0187049 0.0677474 0.070957 0.00649333 -0.0115603 0.0218845 0.109192 0.0907169 -0.0325396 -0.0158835 -0.0100719 0.00284296
internal_weight=0 4520.9 4188.92 4009.13 3787.18 3602.19 786.127 584.299 417.286 386.845 354.969 221.951 331.977 201.828 133.802 294.315 282.823 37.662 31.8766 68.0266 211.37 167.013 103.156 86.1199 30.4404 20.461
internal_count=28801 24284 22377 21134 19964 18864 4517 3480 2446 2274 2081 1170 1907 1037 673 1709 1639 198 193 364 1115 1034 509 427 172 111
is_linear=0
shrinkage=0.094472


Tree=23
num_leaves=27
num_cat=0
split_feature=126 1 1 0 20 20 20 120 20 126 21 1 1 0 14 20 99 21 99 1 126 126 126 0 16 20
split_gain=165.556 163.221 338.891 92.9175 97.3782 91.989 81.1827 54.4992 51.0438 50.9534 45.9383 41.298 166.439 36.0003 41.4086 38.6066 28.9223 22.8215 21.231 19.3863 17.5575 17.2225 17.0182 16.7954 13.35 11.2991
threshold=0.00033576309542663474 0.45695658729104821 -0.57664773877483355 -0.38004842733469441 -0.32503425276255887 -0.49900560566147939 -0.84694831145932048 1.0000000180025095e-35 1.2407079233277261 0.061823134614036872 1.0000000180025095e-35 1.4817183489063879 0.45818431521284736 -0.59868785087689302 0.043536380871724074 -0.67297695856039985 1.0000000180025095e-35 1.0000000180025095e-35 1.0000000180025095e-35 1.4998013160058898 4.2023119839014811e-05 4.2023119839014811e-05 8.3784045766276304e-05 -0.67038764472920953 2.4392808295906905 -0.15106289986363838
decision_type=2 2 2 2 2 2 2 2 2 2 2 2 2 2 2 2 2 2 2 2 2 2 2 2 2 2
left_child=7 2 3 6 18 16 23 13 -6 -8 11 12 -7 15 24 -1 17 -3 -5 -13 -9 -17 -23 -2 -15 -16
right_child=1 5 -4 4 8 10 9 20 -10 -11 -12 19 -14 14 25 21 -18 -19 -20 -21 -22 22 -24 -25 -26 -27
leaf_value=0.081786476223026039 -0.0034562056530821079 0.078393952180230639 -0.1104604072607714 0.08183068492543881 -0.013002528093572852 0.017326322233779088 -0.029704282966763546 0.037879233429790729 0.049563817492006515 0.027879763021259232 -0.091940392801827947 0.061680496893123334 -0.11832933964043495 0.086439034392608707 0.061346592005662309 0.048586824180719426 -0.046524319735030163 -0.055662814735576341 -0.037680491468943825 0.013914063654224661 -0.051579523240213782 -0.091236540688035411 0 0.063603005390055797 0 -0.0063948905223605735
leaf_weight=65.967582784593105 35.450291156768799 278.72303723543882 315.61142874509096 189.18700281530619 542.38672287762165 524.01795022934675 1672.8508478738368 18.552985802292824 141.95243392139673 140.03929959982634 33.856325216591358 158.39744748175144 89.337880603969097 308.72353162616491 22.34877036511898 49.167486727237701 12.421352364122866 5.5224789530038825 7.8055318146944037 183.68353448808193 67.158367902040482 15.398953475058077 166.03467071056366 111.88819262385368 11.614986285567282 76.106261134147644
leaf_count=427 200 2215 2708 1064 2621 2454 8298 103 677 660 261 935 540 1713 139 229 58 26 37 975 368 76 764 808 59 386
internal_value=0 -0.00684399 -0.0184385 -0.00791974 0.0173218 0.0213681 -0.0194233 0.0396664 0 -0.0250334 0.007079 0.0113994 -0.00291505 0.0483196 0.0663561 0.0211769 0.0670812 0.0738032 0.0748266 0.037464 -0.028097 0.00112337 -0.011398 0.046183 0.0827056 0.00893682
internal_weight=0 4443.13 3157.17 2841.56 881.332 1285.96 1960.23 801.074 684.339 1812.89 989.293 955.437 613.356 715.362 418.794 296.569 296.667 284.246 196.993 342.081 85.7114 230.601 181.434 147.338 320.339 98.455
internal_count=28801 24537 17073 14365 4399 7464 9966 4264 3298 8958 5165 4904 2994 3793 2297 1496 2299 2241 1101 1910 471 1069 840 1008 1772 525
is_linear=0
shrinkage=0.094472


Tree=24
num_leaves=27
num_cat=0
split_feature=20 126 21 7 2 20 0 20 20 2 20 39 0 0 126 126 20 32 126 126 20 0 103 55 7 0
split_gain=144.379 134.574 117.602 251.775 82.1698 73.9804 47.3003 46.5434 54.0314 42.6335 37.8033 35.1721 34.0461 30.9678 22.8849 25.111 20.6399 19.7122 17.4363 16.1912 15.1983 15.1963 13.3235 9.99166 9.25098 8.40819
threshold=-0.84694831145932048 0.00020990558165880153 1.0000000180025095e-35 -0.21091983793481345 -0.37890714536799852 -0.15106289986363838 -0.6507206064825547 -0.15106289986363838 1.0667365704288054 -0.068473030793683984 -0.49900560566147939 1.0000000180025095e-35 -0.42430379314256228 0.50583715298952758 4.2023119839014811e-05 0.00020968279901994381 -0.49900560566147939 1.0000000180025095e-35 0.0045289758242788485 0.068898147788701777 -0.67297695856039985 -0.67038764472920953 1.0000000180025095e-35 1.0000000180025095e-35 -0.13732275197833468 -0.67152196042245504
decision_type=2 2 2 2 2 2 2 2 2 2 2 2 2 2 2 2 2 2 2 2 2 2 2 2 2 2
left_child=21 6 3 7 5 12 14 22 -9 19 18 -7 -4 -12 -2 20 -11 23 -5 -6 -16 25 -3 24 -8 -1
right_child=1 2 4 10 9 11 17 8 -10 16 13 -13 -14 -15 15 -17 -18 -19 -20 -21 -22 -23 -24 -25 -26 -27
leaf_value=0.050336188234977215 0.058110215104471397 0.05534787619421494 0.0020000757638877092 -0.02980509955627561 -0.056229760358828471 -0.013587417099987101 0.068011121128352336 0.0016461512383473223 0.067957766856268365 0.0033350951878156443 -0.062449612363572729 -0.084142130595062634 0.061450566591450852 0.033826781903492163 0.02916352929918201 0.076732503567612895 -0.03307485774790539 -0.036571966616100272 0.038281817644733866 0.031181790865060136 -0.058281756777215782 0.078481163422605624 -0.031796551028813826 0 0.0061612362667938271 -0.018737293062021397
leaf_weight=21.798835515975952 31.185107305645943 551.60837051644921 192.64384522289038 62.74639018625021 719.6443693973124 832.90794329345226 347.7219355404377 546.60338048264384 134.49133663997054 217.61160086095333 410.47029392793775 65.381735131144524 166.0211641676724 24.833827540278435 13.573252178728579 11.353885702788828 322.86852978169918 12.751035675406454 59.039046697318554 11.954137250781057 90.108725301921368 215.27892133593559 8.6192334145307523 25.094566807150841 34.664297722280025 24.954758003354073
leaf_count=142 147 3357 1066 333 3719 4545 1905 2818 716 1153 2229 360 915 135 71 50 1873 62 356 51 444 1848 46 137 184 139
internal_value=0 -0.00342135 -0.0091543 0.00919157 -0.0222979 -0.00487744 0.0395548 0.0329592 0.0155941 -0.0392002 -0.0430836 -0.0195255 0.0307967 -0.0559745 -0.00495244 -0.0262413 -0.0180407 0.0555322 0.00132442 -0.0542026 -0.0434341 0.0678118 0.0532198 0.0595379 0.0632746 0.0103205
internal_weight=0 4893.9 4327.45 1798.41 2529.03 1256.95 566.453 1241.32 681.095 1272.08 557.09 898.29 358.665 435.304 146.221 115.036 540.48 420.232 121.785 731.599 103.682 262.033 560.228 407.481 382.386 46.7536
internal_count=28801 26672 23672 9990 13682 6886 3000 6937 3534 6796 3053 4905 1981 2364 712 565 3026 2288 689 3770 515 2129 3403 2226 2089 281
is_linear=0
shrinkage=0.094472


Tree=25
num_leaves=17
num_cat=0
split_feature=127 127 127 127 127 127 120 20 20 2 2 14 0 3 20 3
split_gain=161.976 569.198 117.309 498.409 221.441 237.447 210.147 9.76091 11.8913 8.13928 15.8243 6.28475 8.40926 15.319 4.2349 0.972312
threshold=0.16082239058305062 0.068447151252661279 0.041267293235165321 0.068441745374262383 0.040128767118413657 0.033176471979368648 1.0000000180025095e-35 -0.49900560566147939 1.0667365704288054 -0.37757086017332103 0.053787852738362792 4.4009332853140171 0.50583715298952758 -0.44511478632495527 0.37085115883312325 2.5820011185221983
decision_type=2 2 2 2 2 2 2 2 2 2 2 2 2 2 2 2
left_child=1 2 4 -4 5 6 -1 15 11 -5 -11 12 13 -9 -14 -2
right_child=7 -3 3 9 -6 -7 -8 8 -10 10 -12 -13 14 -15 -16 -17
leaf_value=0.014206815513862905 0.076331197714553115 -0.12161586262519176 -0.13176625338392059 0.091626322159661225 0.095194675927473688 -0.13025384744356239 -0.078961585788695235 0.046214425488935978 0.089808544563332454 0 0.073479092049529918 -0.021177217306516605 0.07664085008053069 -0.002913753845088172 0.019987529605972897 0
leaf_weight=3237.6136272773147 141.69269454479218 341.17839185521007 241.59571085497737 89.420991018414497 246.3700223788619 108.74932076409459 225.20006022229791 95.935795605182648 39.134136885404587 53.26891566067934 56.888292476534843 9.7631605193018896 55.95051746815443 105.35830014571548 40.647862315177917 5.4831349849700919
leaf_count=17311 1058 2601 1495 499 1364 647 1330 450 224 277 386 55 313 534 208 49
internal_value=0 -0.00523026 0.00418149 -0.0415106 0.00958661 0.00346182 0.00794864 0.051394 0.0397328 0.0670647 0.0412304 0.0309661 0.0339338 0.0198322 0.0579084 0.074571
internal_weight=0 4600.29 4259.11 441.174 3817.93 3571.56 3462.81 493.966 346.79 199.578 110.157 307.656 297.892 201.294 96.5984 147.176
internal_count=28801 25910 23309 2657 20652 19288 18641 2891 1784 1162 663 1560 1505 984 521 1107
is_linear=0
shrinkage=0.094472


Tree=26
num_leaves=21
num_cat=0
split_feature=121 39 55 67 2 7 2 99 39 0 0 86 107 61 67 0 2 0 2 0
split_gain=176.558 162.685 130.653 121.448 123.903 141.867 114.591 39.5139 39.7641 34.6675 26.2166 24.0073 22.5238 22.1044 14.4666 14.6861 11.0729 10.0009 8.44456 2.16611
threshold=1.0000000180025095e-35 1.0000000180025095e-35 1.0000000180025095e-35 1.0000000180025095e-35 -0.37890714536799852 -0.19862906516868614 -0.079113804936984528 1.0000000180025095e-35 1.0000000180025095e-35 -0.63595675112026973 -0.6566319563748485 1.0000000180025095e-35 1.0000000180025095e-35 1.0000000180025095e-35 1.0000000180025095e-35 0.50583715298952758 0.46871309474215878 -0.65564212692868284 -0.37890714536799852 -0.52768320375511413
decision_type=2 2 2 2 2 2 2 2 2 2 2 2 2 2 2 2 2 2 2 2
left_child=7 2 3 4 5 -2 -6 8 9 10 12 13 -1 -11 15 16 -10 -12 -9 -13
right_child=1 -3 -4 -5 6 -7 -8 18 14 11 17 19 -14 -15 -16 -17 -18 -19 -20 -21
leaf_value=0.046093990701649518 0.022926012374183218 -0.12094298991039602 -0.12812234858560617 -0.12011144550863015 -0.050296057717492494 -0.046691147184918728 0.0034719532019905526 0 -0.020596071139307087 0.060445144334807778 -0.046828657056810663 -0.043135273867829269 -0.075430294923381075 -0.045465156136318977 -0.090433323474843869 0.06244838953204903 0.052035009137991181 0.0021042749111177864 -0.07936929514657845 0
leaf_weight=183.65084527432919 1862.822769317776 108.44662040099502 71.223423980176449 72.352989692240953 685.48027557879686 296.23652136698365 705.35502782464027 11.233385898172854 125.83959136158228 643.448591273278 49.023373551666737 15.705082334578039 7.9452576860785475 11.186366632580755 10.571323558688162 24.663922838866711 14.834243483841417 86.353612065315247 27.224935799837112 8.3332702964544279
leaf_count=952 10410 685 404 450 3913 1739 4424 57 613 3805 235 76 36 58 52 130 88 487 141 46
internal_value=0 -0.0097595 -0.00623846 -0.00356756 -0.00092524 0.0131504 -0.0229329 0.031462 0.0347471 0.0419925 0.015191 0.0542737 0.0376292 0.0578452 -0.00520603 0.00153113 -0.00934555 -0.014893 -0.0547302 -0.026304
internal_weight=0 3801.92 3693.47 3622.25 3549.89 2159.06 1390.84 1220.01 1181.56 1005.65 326.973 678.673 191.596 654.635 175.909 165.338 140.674 135.377 38.4583 24.0384
internal_count=28801 22025 21340 20936 20486 12149 8337 6776 6578 5695 1710 3985 988 3863 883 831 701 722 198 122
is_linear=0
shrinkage=0.094472


Tree=27
num_leaves=27
num_cat=0
split_feature=125 125 125 125 125 125 125 20 2 7 1 15 120 121 120 1 120 126 2 2 126 7 15 120 2 2
split_gain=147.359 146.406 212.984 260.008 252.778 149.645 31.1836 20.5256 33.6079 14.7804 13.8193 9.43241 8.68277 7.12591 4.76874 4.62463 4.36875 4.75062 4.00277 5.01523 2.65711 2.64715 1.83312 1.68955 1.57727 13.9296
threshold=0.0020976869941272975 0.11565687819780808 0.071231224772482074 0.071205814029582634 0.046468112252697244 0.046466292551832641 0.00054603594796062953 -0.49900560566147939 -0.37890714536799852 -0.20701627853151525 1.4817183489063879 0.7658400092702341 1.0000000180025095e-35 1.0000000180025095e-35 1.0000000180025095e-35 -0.51440566165778623 1.0000000180025095e-35 0.0065681896529777061 -0.2346594795518229 -0.27837870289081007 0.0073810958390288254 -0.21053051963217032 2.2043683791815099 1.0000000180025095e-35 -0.37457646492515967 -0.36446634495284924
decision_type=2 2 2 2 2 2 2 2 2 2 2 2 2 2 2 2 2 2 2 2 2 2 2 2 2 2
left_child=6 2 3 4 5 -2 24 18 9 12 13 16 -9 -10 15 -5 17 -3 19 23 22 -12 -13 -8 -1 -26
right_child=1 11 -4 14 -6 -7 7 8 10 -11 21 20 -14 -15 -16 -17 -18 -19 -20 -21 -22 -23 -24 -25 25 -27
leaf_value=0.082564965759361744 -0.011382621452925779 0.077087982144134037 -0.11702483651145854 0.11776266510135008 -0.12481780193384547 0.087021790174034094 0.043111168317037443 0.061482502100905632 0 -0.006428151384223979 0.057887369202101892 0 -0.0047778368239164495 -0.048654567880078201 0 0.063551096134048468 0.0016652359459076991 0.034757729803215232 0.073103811183349118 -0.0038921174451378819 -0.017004364563234835 0 0.040691891945259628 0 -0.036209377319948159 0.057536686236283788
leaf_weight=112.69943673163652 3279.0726018249989 167.05258328467607 158.3520881626755 112.00720568746328 166.08449998497963 137.79460842907429 83.308921821415424 111.59107311815023 35.748495310544968 39.473661564290524 12.262768603861334 12.737008877098562 11.204243890941141 92.691722050309181 9.2114255353808385 81.61936891451478 19.248087763786316 78.164129719138145 62.38375673443079 15.865228436887262 12.61353115737438 6.0868010744452468 15.960969857871531 6.3768731057643881 8.2524018958210927 130.30763089284301
leaf_count=712 18110 1057 1243 579 1100 754 564 592 169 209 89 73 62 489 52 539 110 505 542 89 75 34 87 46 42 878
internal_value=0 -0.00658676 -0.0115527 -0.00689849 -0.0129147 -0.00719533 0.0392461 0.0236857 0.00786649 0.0375142 -0.0233176 0.0556295 0.053394 -0.0355365 0.0954971 0.0987646 0.0622473 0.0657796 0.0500163 0.0308646 0.00509441 0.0390606 0.0238593 0.0397044 0.0665414 0.0488589
internal_weight=0 4249.92 3944.14 3785.79 3582.95 3416.87 728.253 476.994 309.059 162.269 146.79 305.776 122.795 128.44 202.838 193.627 264.465 245.217 167.935 105.551 41.3115 18.3496 28.698 89.6858 251.259 138.56
internal_count=28801 24284 22377 21134 19964 18864 4517 2885 1644 863 781 1907 654 658 1170 1118 1672 1562 1241 699 235 123 160 610 1632 920
is_linear=0
shrinkage=0.094472


Tree=28
num_leaves=22
num_cat=0
split_feature=127 127 20 2 2 7 20 20 126 127 126 126 64 14 7 7 6 20 7 7 7
split_gain=133.192 489.506 102.785 109.818 130.53 121.068 99.0074 45.4413 37.1007 22.9624 15.6536 97.7806 14.4781 9.83377 6.61938 4.80712 4.44328 1.67309 1.97768 1.33245 0.0199744
threshold=0.16082239058305062 0.068447151252661279 -0.84694831145932048 -0.37890714536799852 0.53930385432380135 -0.21091983793481345 -0.15106289986363838 -0.49900560566147939 0.0018036675871661444 0.068441745374262383 0.014722387192066333 0.068898147788701777 1.0000000180025095e-35 4.908260910926967 0.058902920228185447 1.8792338305313996 -0.050021339816532409 -0.67297695856039985 -0.20044241349705449 0.63770872786652744 0.91048373915025682
decision_type=2 2 2 2 2 2 2 2 2 2 2 2 2 2 2 2 2 2 2 2 2
left_child=1 2 12 5 7 6 -4 -5 -6 -7 13 -12 15 14 -2 16 -1 -13 -19 -20 -16
right_child=10 -3 3 4 8 9 -8 -9 -10 -11 11 17 -14 -15 20 -17 -18 18 19 -21 -22
leaf_value=0.079549201025489374 0.070146822355609581 -0.11831201173485444 0.055187285684339525 -0.011467702873484325 0.073469217270135556 -0.039593210488793877 0.0085877555085286938 -0.048827353012194055 0.0082299650096560022 0.059543850986112389 -0.11080581809437744 0.081548383123703314 -0.016074194820372721 -0.01256380501281289 0 0 0 0.045149780597230758 -0.014366525293980558 0.023925416912376547 0.0032454675586465697
leaf_weight=180.87151229381561 247.53145733848214 309.98954554088414 594.27319373562932 530.40262420102954 114.45595885440707 370.46387929096818 1330.4861025065184 717.46324210241437 258.73384837806225 14.972895376384256 32.79129833728075 41.904624789953232 9.9235431179404241 7.2968952581286421 9.3403271362185496 4.6396952494978896 6.7983869761228553 109.26436714082956 8.0655767545104045 10.017135649919508 11.819145672023295
leaf_count=1609 1416 2601 3306 2811 690 2005 7072 3990 1596 76 205 396 61 42 45 34 59 630 40 53 64
internal_value=0 -0.00490936 0.00368307 0.000189582 -0.018553 0.0134712 0.0232372 -0.0332889 0.0297648 -0.0342308 0.0472828 0.0240009 0.0684072 0.0625283 0.0657723 0.0744705 0.0768158 0.0544526 0.0403608 0 0.000509478
internal_weight=0 4443.47 4133.48 3931.25 1621.06 2310.2 1924.76 1247.87 373.19 385.437 478.031 202.043 202.233 275.988 268.691 192.31 187.67 169.252 127.347 18.0827 21.1595
internal_count=28801 25910 23309 21546 9087 12459 10378 6801 2286 2081 2891 1324 1763 1567 1525 1702 1668 1119 723 93 109
is_linear=0
shrinkage=0.094472


Tree=29
num_leaves=20
num_cat=0
split_feature=121 120 39 127 127 126 127 120 127 39 127 127 67 67 127 126 20 126 0
split_gain=144.123 176.243 151.468 126.736 370.6 97.1857 39.4915 104.994 40.3543 30.2592 17.9068 41.8455 18.6383 13.5062 14.8853 13.1732 15.7419 12.2138 4.78214
threshold=1.0000000180025095e-35 1.0000000180025095e-35 1.0000000180025095e-35 0.16082239058305062 0.068447151252661279 0.00033576309542663474 0.040128767118413657 1.0000000180025095e-35 0.0036906125864438733 1.0000000180025095e-35 0.0039048973187018996 0.0033557444260184735 1.0000000180025095e-35 1.0000000180025095e-35 0.012085350395254489 0.0024333411779949741 -0.49900560566147939 4.2023119839014811e-05 -0.64579960515674995
decision_type=2 2 2 2 2 2 2 2 2 2 2 2 2 2 2 2 2 2 2
left_child=6 2 3 4 5 -2 7 9 17 10 11 -1 -12 14 -11 -5 -17 -9 -19
right_child=1 -3 -4 15 -6 -7 -8 8 -10 13 12 -13 -14 -15 -16 16 -18 18 -20
leaf_value=0.03345245901845334 0.041187710713781155 -0.11248003419260873 -0.11649572099219463 0.082283113019310503 -0.11530358077737604 -0.0062599506368293811 0.084657660982994667 0.053822014964122755 -0.11705372067883717 -0.0095915458596430112 0.068270404144168143 -0.11190873477806211 0.0056893983938836774 -0.084990565116305899 0.052815859577684643 0.064531890828637167 0.020329055124493338 -0.058793219279979991 -0.0043625011521669687
leaf_weight=403.05516413226724 457.96735214069486 135.7963486276567 99.43885893933475 75.857634380459785 258.941631173715 2257.1791874058545 101.5684400908649 13.905656326562164 47.644333969801664 115.63775956630707 296.9878422729671 12.166372433304785 61.915463231503963 10.097483329474924 39.996974546462297 115.96303417161107 274.3708425834775 23.954042129218578 55.545706011354923
leaf_count=2425 2453 1131 685 460 2310 12555 643 83 282 581 1692 54 346 52 217 958 1473 120 281
internal_value=0 -0.00902684 -0.0048053 -0.00130901 -0.00858693 0.00171427 0.0288125 0.022895 -0.0509353 0.0345037 0.042305 0.0270768 0.0584754 -0.000558733 0.00608892 0.0440862 0.0348912 -0.00964028 -0.0267969
internal_weight=0 3675.51 3539.72 3440.28 2974.09 2715.15 1182.48 1080.91 141.05 939.857 774.125 415.222 358.903 165.732 155.635 466.192 390.334 93.4054 79.4997
internal_count=28801 22025 20894 20209 17318 15008 6776 6133 766 5367 4517 2479 2038 850 798 2891 2431 484 401
is_linear=0
shrinkage=0.094472


Tree=30
num_leaves=27
num_cat=0
split_feature=125 125 125 125 127 127 125 0 7 125 125 120 127 127 126 126 121 86 126 0 1 1 7 126 125 127
split_gain=129.825 257.544 162.279 186.704 123.951 88.6143 60.9122 51.8418 44.892 32.704 201.786 31.8445 26.3027 24.8721 45.6849 23.1972 22.3506 18.7192 15.7838 14.9043 12.2091 13.8469 11.0147 9.79165 9.66944 6.49195
threshold=0.0085210762196278895 0.011951512941830852 0.0120823105046399 0.017065466447730569 0.0091021453813260843 0.16082239058305062 0.025920350809489155 -0.63462947349449694 -0.21053051963217032 0.01471961646535669 0.01476237089205828 1.0000000180025095e-35 0.16082239058305062 0.041267293235165321 0.061823134614036872 0.032906800878777322 1.0000000180025095e-35 1.0000000180025095e-35 8.404021271936548e-05 0.50583715298952758 0.45695658729104821 -0.5659248262466714 0.076130756227845695 0.00025169355981974638 0.0007567853371755821 0.0036492619714353601
decision_type=2 2 2 2 2 2 2 2 2 2 2 2 2 2 2 2 2 2 2 2 2 2 2 2 2 2
left_child=7 -2 -3 9 6 -6 -5 12 11 -4 -11 13 18 17 -15 23 22 -9 -1 24 21 -20 -10 -13 -18 -22
right_child=1 2 3 4 5 -7 -8 8 16 10 -12 15 -14 14 -16 -17 19 -19 20 -21 25 -23 -24 -25 -26 -27
leaf_value=0.044361376290619245 -0.13644451220452017 0.12374180139871996 -0.13122989056168299 0.04937348847940852 -0.029911683117993887 0.029932495776275124 0.0042868250792330838 0.061214457248342791 -0.037351781556891443 0.1103643891782207 -0.13004288100508837 0 0.084601855848367963 -0.015339990139719583 0.0647162350164385 0.045878052504820521 0.0024136839371478275 -0.0317606937025256 -0.011913524192019333 0.059635661325099738 -3.3047820162941691e-06 -0.08230499938063425 0.055716612442826899 -0.077197072346255308 -0.049612118716417429 0.064336044506030324
leaf_weight=40.784301865845919 134.2587241306901 78.660136990249157 101.01709939539433 427.14351756125689 1273.7967405691743 257.71758139878511 742.53983102738857 572.96638124808669 6.1750436574220648 40.424090325832367 87.960199661552906 12.54472905024886 23.573303025215864 133.92766080051661 106.65327265113592 26.925610993057489 30.745354562997818 12.761177726089953 424.53053687140346 8.9582694843411428 13.344734027981756 23.143281508237123 52.935125883668661 34.488930933177471 104.71073639392853 20.641791082918644
leaf_count=244 804 406 612 2191 8257 1549 4302 3351 37 224 529 75 149 895 805 214 190 70 2214 54 85 192 331 227 643 151
internal_value=0 -0.0111225 -0.00519131 -0.00898025 -0.00184527 -0.0195912 0.0211427 0.0215537 0.0332952 -0.0897404 -0.0508434 0.0423418 -0.00179302 0.0477133 0.0197389 -0.0133955 -0.00549562 0.0584424 -0.00708375 -0.0264667 -0.0124671 -0.0171487 0.0393767 -0.0537453 -0.036276 0.0359493
internal_weight=0 3143.52 3009.26 2930.6 2701.2 1531.51 1169.68 1649.81 1103.79 229.401 128.384 900.268 546.018 826.308 240.581 73.9593 203.525 585.728 522.445 144.414 481.66 447.674 59.1102 47.0337 135.456 33.9865
internal_count=28801 18874 18070 17664 16299 9806 6493 9927 6892 1365 753 5637 3035 5121 1700 516 1255 3421 2886 887 2642 2406 368 302 833 236
is_linear=0
shrinkage=0.094472


Tree=31
num_leaves=24
num_cat=0
split_feature=121 39 67 64 20 125 67 0 20 125 20 61 90 64 125 20 3 39 0 3 3 20 2
split_gain=110.987 121.759 94.6225 87.1907 81.7305 73.7859 30.6565 30.7835 27.1115 24.7564 21.6081 19.9968 19.2046 18.9467 17.999 16.3712 15.6933 11.7607 8.55627 6.72369 3.13648 2.31647 2.13044
threshold=1.0000000180025095e-35 1.0000000180025095e-35 1.0000000180025095e-35 1.0000000180025095e-35 1.0667365704288054 0.0085210762196278895 1.0000000180025095e-35 -0.4784679367602977 -0.67297695856039985 0.037500016826027709 -0.32503425276255887 1.0000000180025095e-35 1.0000000180025095e-35 1.0000000180025095e-35 0.00062919146718203966 -0.15106289986363838 -0.43646249974068313 1.0000000180025095e-35 0.11131058327822514 0.85148346561050259 1.8280689155118239 0.37085115883312325 -0.20047164601867179
decision_type=2 2 2 2 2 2 2 2 2 2 2 2 2 2 2 2 2 2 2 2 2 2 2
left_child=6 2 3 4 5 -2 7 8 13 -6 -8 12 15 17 -10 -9 -16 -1 21 -20 -21 -12 -15
right_child=1 -3 -4 -5 9 -7 10 11 14 -11 18 -13 -14 22 16 -17 -18 -19 19 20 -22 -23 -24
leaf_value=0.068473826298772758 0.014680953641959376 -0.11247349218732589 -0.11425049092232895 -0.124801443190624 0.0605160149399653 -0.01633973741854295 0.050913419188772922 0.084393682689002797 0.065577068433033736 0.0044457236793415305 -0.082370949322704612 -0.05678316880513537 -0.045494243896862616 0 0.0029526793076225183 0.039392472559512372 -0.06336709375187996 0 0.042164049572316682 -0.059482952012145179 0 0 -0.052572342147214984
leaf_weight=136.14902684465051 1018.9351851195097 91.460177695378661 63.793170934543014 45.736766546964645 225.06277000159025 2026.7020414844155 18.551731701940298 147.70974242687225 32.475652724504471 118.11246751621366 35.88781813532114 8.2367670163512212 9.7800574861466867 12.043861307203771 397.16246422380209 254.15130745619535 28.531269632279873 25.320340968668461 10.186144962906839 11.085442677140238 8.3290528580546361 8.7265637665986997 7.5198099687695494
leaf_count=1068 6203 685 450 259 1111 12546 138 1165 175 771 177 44 53 63 1942 1435 134 142 57 54 44 44 41
internal_value=0 -0.00805378 -0.00506613 -0.00277149 -0.000835697 -0.00586499 0.0255782 0.030262 0.016335 0.0423841 -0.0237961 0.0503209 0.0538659 0.0467953 0.00328533 0.0575558 -0.00165454 0.0578892 -0.0481716 0 -0.0354469 -0.0721073 -0.0264441
internal_weight=0 3589.8 3498.34 3434.55 3388.81 3045.64 1151.85 1059.08 639.202 343.175 92.7668 419.878 411.641 181.033 458.169 401.861 425.694 161.469 74.215 29.6006 19.4145 44.6144 19.5637
internal_count=28801 22025 21340 20890 20631 18749 6776 6262 3565 1882 514 2697 2653 1314 2251 2600 2076 1210 376 155 98 221 104
is_linear=0
shrinkage=0.094472


Tree=32
num_leaves=27
num_cat=0
split_feature=21 7 125 125 125 125 125 15 15 125 125 125 125 70 0 121 16 0 2 0 15 2 125 0 55 125
split_gain=100.197 176.621 64.8583 68.4025 94.3155 153.785 111.569 48.6702 44.9928 33.9573 28.5818 80.1964 35.8897 31.1233 24.5696 24.2431 23.5694 20.9899 19.5357 16.9031 11.7966 10.9714 10.3954 8.06895 6.1573 5.79777
threshold=1.0000000180025095e-35 -0.21091983793481345 0.00092457022397821151 0.11565687819780808 0.071231224772482074 0.071205814029582634 0.046468112252697244 -0.2609345366573757 3.8498655876507235 0.0020976869941272975 0.025920350809489155 0.071205814029582634 0.046468112252697244 1.0000000180025095e-35 1.1195716461777636 1.0000000180025095e-35 3.3942679288349029 -0.67276720228367981 -0.37817905774658855 0.36803463728556995 0.33171952448817826 0.39506653185922885 0.00042013018741683602 -0.50523440284707644 1.0000000180025095e-35 0.04810321219500998
decision_type=2 2 2 2 2 2 2 2 2 2 2 2 2 2 2 2 2 2 2 2 2 2 2 2 2 2
left_child=1 7 17 4 5 6 -4 10 14 23 13 12 -12 18 20 -11 -16 -2 -1 21 -9 -17 -19 -3 -5 -10
right_child=2 9 3 24 -6 -7 -8 8 25 15 11 -13 -14 -15 16 19 -18 22 -20 -21 -22 -23 -24 -25 -26 -27
leaf_value=0.072616106214118778 -0.047747774371662575 0.044041772097789762 -0.015755551185940901 0.045561564837179241 -0.10799708496264657 0.099028258345752435 -0.11484997791053084 -0.023165042464852577 0.087188203691148602 -0.0035063101883081233 0 0.070195221850973169 -0.10430105463998865 -0.067638209204175542 -0.054062990617392691 -0.062622438285526036 0.044548686088021525 0.075600623930674626 0.035127013935102737 0.015362462220039497 0.047887962170516739 0.0050037604726506412 0.022949780108219728 -0.001743252797105244 -0.011758372265394321 0
